2556 50
the 0.23418961 0.39655823 -0.50877553 0.37326035 0.26146546 0.5781328 -1.3451871 -0.22528908 -0.95071006 1.1655847 -0.78975874 1.0674623 -0.31219748 0.54502714 0.68871206 0.10591006 -0.37958717 1.2657952 1.1227896 1.1889199 1.3129233 0.15014796 0.550178 0.35836634 0.73132205 0.9781614 0.019038826 1.8270992 0.7765239 -0.49623236 -0.12776685 0.39824384 0.56247747 -0.54801947 -0.3535778 0.22603229 -1.2545093 0.24470723 0.17586762 -0.2925857 0.13600975 -1.5410655 0.70644164 -0.24166726 -1.1737359 0.10910859 0.45792577 0.13257837 -0.4969329 0.053622592
and -0.27921835 -0.4711344 -0.32654026 -0.15971686 0.095606506 0.8827997 -0.19589677 0.3664726 0.09546856 0.07873332 -0.0909172 0.4655748 0.770404 0.043714713 -0.7075095 0.38200784 -0.11134253 -0.503324 0.20477854 0.010809315 0.0024354255 -0.27919674 -0.3673331 1.0749373 0.32604522 0.8001513 -0.4145758 -0.044452637 -0.43884832 -0.90574336 -0.82306266 -0.27014026 -0.47474542 -0.33234516 0.659574 0.6031709 -0.057540625 1.0241071 0.91866034 0.69759166 1.157561 -0.99475944 -0.27807605 -0.26443362 0.38672954 -0.31814715 0.12393985 -0.32354167 -0.034287702 0.20817018
to 0.12652779 -0.92332006 1.0052693 -0.48759902 0.2634678 0.99045706 0.61947936 -0.09272124 -0.90202105 1.3543427 0.574562 -0.29902437 -1.1570855 0.50866395 -0.81073534 -0.5067551 -1.01792 -0.47432685 0.21207763 -0.115133435 -0.28761002 0.5507244 0.5934502 0.13166478 -1.2098874 0.28773466 0.7705556 0.8128995 -1.0471468 0.19875816 0.14700986 -1.1634355 -0.570899 0.55265224 -1.1716728 -0.51318735 -0.53255326 -0.9239586 0.58423114 -0.2370947 -0.26317078 -0.1551756 -0.2499596 -0.3851994 0.9577977 -0.6488658 0.22080015 0.7189445 -0.08749202 -0.8650324
a 0.6910144 0.7858438 0.5616117 -0.33730334 0.21158572 1.0561186 0.08443922 -0.22347124 0.45084015 -0.021100432 -0.2507782 -0.8322035 -0.045144964 0.29927066 0.37624618 0.99163073 -0.32041743 0.06874797 0.17696373 0.45210257 0.013689458 0.8748966 -0.81818336 0.7372721 0.6650941 -1.3222969 1.325137 1.14036 -1.4144797 -0.6439012 0.26369178 -0.30690667 0.1568188 -1.2302419 0.25514162 0.32398447 0.466069 0.8191415 0.5456485 0.029101057 -0.21447971 1.1155497 -0.23299167 0.52033734 0.17096542 0.6334501 1.609629 0.17786895 0.8553495 0.6183813
it 0.61247724 -0.41493785 0.07875209 -0.02658885 -0.23022486 -0.55771756 -0.16268186 -0.837359 -0.13122194 0.27972078 0.16999613 -0.23815963 -0.4938149 -0.18736789 -0.78589034 0.28044724 -0.5860444 0.20356983 -0.13348566 0.37449723 0.22700942 -0.2488088 -0.046390753 0.75252676 -0.25070462 -1.0579362 -0.6260806 -0.41537896 -0.47772923 0.23321709 -0.3575672 0.27062047 -0.34918565 0.17993404 -0.19624642 -0.3732341 -0.19837278 -0.12772241 0.7732028 0.62758034 0.11969124 -0.13104707 0.6254242 -0.61592436 0.33004498 -0.3195449 0.6467796 -0.3065828 -0.65977657 -0.52273333
she 0.36196807 -0.6498337 0.7921234 -0.63137 -0.18670581 0.6563322 -0.43473643 -0.3665078 0.3318255 1.3596557 -0.2993361 -0.49644408 0.441451 -0.5061674 0.05498467 -0.15352175 0.19409992 0.32228366 -0.059965793 -0.1698573 -0.020942934 -0.92227036 -1.0651103 0.051742308 0.44520324 -0.6087008 -0.7355407 0.49491712 -0.87684435 0.47223696 -0.3530097 0.6286508 -0.60505474 0.17198367 0.06983086 -0.55252504 -0.50283927 -0.2075854 0.91693306 1.3705308 0.43289667 0.13480332 -0.082714714 0.33753753 -0.06971767 -0.25204745 0.33590457 0.2184297 -0.7365945 -0.051746372
i 0.35295507 0.17934974 0.56465316 0.49945268 0.8817616 -0.15130424 -0.73846436 -0.20803848 0.30194047 0.24935052 -0.4013339 -0.456493 0.18252183 -0.6413657 -0.49985346 0.45319423 -0.5235763 -0.03241177 0.78812593 -0.6090503 0.29195812 -0.6380437 0.045183405 0.34354198 -1.0527767 -1.2909803 -0.24877346 -0.24631038 -0.92438436 -0.57684845 -0.31782132 0.23872621 -1.0178044 0.53110474 -0.7288162 0.9312148 -0.4682199 -0.61251265 0.13863628 0.9516942 -0.8251782 -0.3168718 -0.16694953 -0.5513204 0.61679214 0.14519204 -0.46047843 0.43941972 -0.45730898 0.3576029
of -0.1326143 1.3636068 0.20028946 0.22245008 -0.5866589 0.039117794 -0.4987569 0.3488485 -0.4936106 0.28433612 -1.2724128 0.106340595 -0.26862743 0.43931285 0.15940371 -0.03584271 0.57745296 0.6257712 0.39350575 0.10334323 1.0786787 0.47823328 0.18900353 -0.95963794 0.35246956 -0.4698283 0.8365584 0.23075293 0.30778453 -0.56591904 1.5737811 -0.4422358 0.40545222 0.10919964 -0.33149263 0.096323766 -1.3233017 1.0954381 -0.20665967 1.3556839 0.32409593 -0.5444588 -0.64180034 1.1814693 0.24934867 -0.3502254 0.36123234 -1.2231019 0.20989582 -0.7439019
said 0.41594088 -0.8131962 -0.53805083 0.4790457 0.23029098 0.7059069 -0.6628358 -0.17305571 -0.28436315 -0.25651982 -0.95966965 -0.01317572 -0.4124583 0.42884377 0.5618664 0.5461898 -1.5515101 -0.28533053 0.06749945 0.4824931 0.792401 -0.5634772 1.2510773 0.068088084 0.6723012 -0.36798948 0.36641452 0.8586331 -0.27762833 -0.8290242 0.23900412 0.043621752 0.33608767 0.34640032 -0.91728336 0.18916672 -0.31898752 0.7194247 0.46642178 -0.5322155 -0.8138467 0.30439293 0.17784546 -0.77077574 0.37177235 -0.12470383 0.112107754 -0.13598484 -0.8533061 -0.43356964
you -0.20754492 -0.5101796 -0.018182678 0.43058705 0.23473924 -0.21002856 -0.41304654 0.25168905 0.798031 0.34795043 -0.08200483 0.030121049 -0.33387354 0.066010684 0.38557482 0.5138506 -1.1009512 0.13102278 0.113360256 -0.509391 0.31009704 -0.6642913 -0.040008597 0.80553436 -1.0588142 -0.55963504 -0.5454386 -0.032591525 -0.34332833 0.08177651 -0.09185442 0.10022525 -0.7316156 -0.95781994 -1.0747913 0.13249402 0.30781585 -0.42598948 -0.33413064 -0.29853812 -0.7147182 -0.4482351 -0.3760179 0.17656857 0.0797928 -0.03943879 -0.5155923 0.46514145 -0.9706973 -0.7531981
alice 0.49081016 -0.39104152 0.032741662 -0.038779356 -0.08606705 0.7133593 -0.67239386 -0.55139905 0.14473061 0.16295634 -0.19088882 -0.3395746 0.65244836 -0.355744 -0.48364758 0.44694948 -0.4514379 -0.10255145 0.4963479 -0.32716662 -0.3185875 -1.2453378 0.31971443 -0.14161329 0.29677257 -0.5704392 0.34043226 0.3491029 -0.56027126 -0.058272347 -0.47610343 -0.15831825 0.13496777 0.050642893 0.4794333 -0.5645995 -0.5269981 -0.12834902 0.59375864 -0.14800821 -0.04177517 -0.3249447 0.60425586 0.21888976 -0.13772774 -0.04727598 0.5778958 0.002862114 -0.95064455 -0.5100164
in 0.059600096 0.00929266 0.6290831 0.09025589 -0.1314876 1.0009025 -0.39342856 0.4547447 0.26669437 -0.601235 -0.3156297 0.347803 -0.3874252 0.9511467 -0.5253838 0.50896055 -0.05801994 -0.1073604 0.14697896 0.5393624 0.8767357 -0.15672919 -0.46138692 0.30786884 0.15843925 0.6076551 -0.087925054 0.8954378 -0.482677 -0.16455913 1.2499063 0.13129921 -0.47322452 0.07609099 0.14247546 -0.15891287 -0.31651038 0.7080147 0.4960796 0.34004262 0.082667105 -0.50655305 0.5217536 -0.33826917 0.28162986 0.5591119 0.53093076 -0.555021 -0.03305851 -0.061147045
was 0.11919928 0.6013368 0.7365188 -0.43524888 -0.07725446 0.6833471 0.05991556 -0.11471103 -0.2385546 0.26709196 0.025930852 -0.32507104 0.113940224 -0.3202783 0.7278514 0.2546477 -0.32663083 -0.20165296 0.012637254 0.8215861 0.8256511 -0.7606312 0.11667671 0.30256048 -0.020132795 -0.67223823 0.06533339 0.7178086 0.44420004 -0.120986134 0.48167017 0.2014342 0.22543143 0.33259335 0.55727243 0.02277686 -0.050177973 0.7694529 0.6836446 0.67626643 -0.17071171 -0.7259271 0.2935197 0.21118739 0.6740042 -0.6322492 0.5932687 0.16747826 -0.6888712 -0.37223673
that 0.5813815 -0.18099971 -0.044002924 -0.07782776 0.43177637 0.2037752 -0.044880018 -0.8833549 -0.41450107 0.1062577 -0.10665103 -0.27945802 0.1234047 0.26426566 -0.188311 0.16127767 -0.28661174 -0.046464402 0.24697961 0.049128987 0.61410064 -0.4055029 0.10287263 0.22811604 -0.29943419 -0.29123616 -0.0132625885 -0.043619704 -0.22949378 0.10322215 -0.22731823 0.20736432 -0.38200328 -0.23642984 -0.20176947 -0.19323869 0.0037202428 -0.22870074 0.65540564 0.027790185 -0.3215653 0.16236168 -0.052845106 -0.018103572 -0.1363737 0.08494947 0.6982433 -0.26291737 -0.41928703 -1.2198853
as 0.38614464 -0.40892917 1.3794558 0.63177156 0.38441673 0.44306725 0.4895824 -0.107805334 -0.16787933 0.27110675 -0.33926934 -0.31468922 0.06973932 0.6438053 0.057813566 0.20646682 -0.34729356 -0.0388023 0.8697811 -0.18998916 0.65337026 -0.43184948 -0.26832128 0.12758681 0.32096612 -0.082681246 -0.75778574 0.21683647 -0.046400506 0.31377167 -0.059787266 0.4572659 -0.3597608 -0.21208337 0.16489832 0.41916803 0.42150125 -0.2289358 0.3243321 1.1002432 0.36478865 -0.17699029 0.527318 -0.07134494 0.33649787 -0.08199706 0.5668125 -0.63578784 -0.3805065 -0.3374766
her 0.2525275 -0.3856012 0.36027256 -0.69792634 -0.634033 0.13647465 -0.02209202 0.16285938 0.14293008 0.17339864 -0.73493236 -0.6879618 -0.08522494 -0.1161128 -0.49213925 0.63260627 -0.13036406 0.3891855 0.015372668 0.71388733 0.23287912 0.49038047 -0.4328459 0.62199235 -0.26167506 -0.36072433 -0.11500641 0.994053 0.13935487 -0.06990792 0.20626567 -0.5169665 -0.30283895 -0.12402693 0.23719896 0.36230502 -0.117348924 0.27119717 0.40937883 0.5732953 0.43835127 -0.5755824 0.17897914 0.040456083 -0.16634078 -0.16023573 0.2946246 -0.48366904 0.1003566 -0.0150081655
t -0.86984783 0.13463728 0.93841165 -0.1595297 -0.016738394 0.15633161 -0.1503204 -0.13843921 0.32173124 -0.1826038 0.14384945 -0.49461508 0.33740193 0.5915086 -0.2491725 0.07077707 -0.58661383 -0.50633305 0.6044673 -1.1404915 0.42819205 0.6421074 1.4093909 0.11505705 -1.7313911 -0.84999037 -0.88054216 -0.608322 0.4575506 -0.45314047 0.59101397 -0.19346493 0.03590735 -1.1016334 -0.55660415 0.2874909 -0.44644195 -0.5827304 -0.16022262 0.14311704 -1.449813 0.10986479 -0.57764655 -0.5177568 -0.12544371 0.09861852 -0.36238092 -0.6433552 -0.5092378 0.12099524
at 0.67904097 -0.3791561 -0.1128952 -0.4453485 -0.3280192 0.8026898 0.16934739 -0.08644187 -0.562604 0.22912632 -0.7404488 0.4989692 0.23098283 0.27528667 -0.3752256 0.2519934 0.7047548 0.09402726 0.7219249 0.22766893 0.6146101 -0.69536024 0.62960577 -0.25251877 0.41896293 0.12529683 0.17573045 0.7624419 -0.24801515 -0.6068673 -0.26331165 0.47679666 -0.1213864 0.99160194 0.07700505 -0.18565223 -0.719075 -0.34573483 0.4585726 0.26394632 -0.8417372 -0.59771186 -0.040235467 -0.30636632 0.39825016 0.06505806 0.8740418 -0.6327757 -0.13241953 0.13059762
s 0.53702646 0.2283128 0.42929915 -0.16527365 0.024710394 0.522217 -0.035633326 0.092417195 -0.19713973 0.049089972 0.19457151 -0.36138007 0.21159074 0.36389363 0.19031234 0.17150053 -0.5003715 -0.47739258 -0.08319578 0.96070623 0.7023836 -0.77491593 0.44716746 0.37379497 -0.20672283 -0.75609505 -0.18602127 0.81775445 0.15643822 -0.26121858 0.87710583 -0.3084591 0.23712723 0.0077583287 0.60548353 -0.09300763 -0.5147274 0.6442912 -0.08577802 0.18731324 -0.4471603 -0.6063697 0.18347162 -0.13914305 0.5688717 0.033836175 0.18054436 0.09492873 -0.35359782 -0.34847906
on -0.26009524 -0.76627636 -0.1108088 -0.41433346 0.0136740245 0.42688805 -0.2554294 0.59383965 0.16011737 -0.1908093 0.012690211 0.36791077 0.0023513534 1.2560858 0.1509378 0.07606418 0.8173622 -0.35757068 0.3669013 0.08554651 0.33494326 0.25841373 0.18050525 -0.03007199 0.5144518 0.048782106 -0.24728255 0.62686485 -0.20371237 0.056971513 -0.40247995 -0.028657507 -0.13851178 -0.30976555 0.13797425 0.092243224 -0.13438 0.5070223 0.82515126 0.418243 0.34720752 -0.45199808 0.057645615 -0.08929726 -0.11387026 -0.38421905 0.04356945 -0.31145087 -0.70363826 -0.004440876
all -0.075925864 -0.3894093 0.28961384 -0.2981469 -0.5759536 -0.4227587 0.20759134 -0.4885325 -0.03414429 0.5781887 -0.100840874 0.3218155 -0.28335103 0.1761681 -0.16534302 0.14041857 0.09369746 0.30096987 0.19649132 0.21254708 0.33214387 -0.4114179 0.37695545 0.38047498 -0.0714162 0.4155449 -0.2426494 0.022970302 0.18764016 0.051127166 -0.005232132 0.25335795 0.109100565 -0.4156335 0.17699653 0.09236142 -0.330658 0.03240144 0.24324173 -0.046164855 -0.150365 -0.09085676 -0.12300171 -0.04208365 -0.14684665 -0.21302916 0.20668629 -0.57662696 -0.038466424 0.21160525
with 0.43988338 -0.027738908 0.27509993 0.12771522 -0.017653959 0.6265489 0.11138036 0.8851866 0.11111753 0.059206698 -0.21254857 0.21115723 -0.44126654 0.72060597 -0.41963673 -0.07281746 -0.14021075 -0.3900632 0.021029346 0.28645873 0.4735167 0.42893383 0.26225755 0.04283319 -0.32642862 0.043117005 -0.019584445 0.35438815 -0.3384676 -0.42569554 0.5240142 -0.0033921034 -0.07128772 0.18986928 0.4328849 0.124383725 0.006184748 0.628971 0.3160722 0.2151134 0.11945006 -0.5667705 -0.13848133 0.101582184 0.08400573 0.17963268 0.060949232 -0.17530954 0.22532068 0.1522737
had 0.28370067 -0.6763275 0.70035017 -0.25872153 -0.09159163 0.06612528 0.25264364 0.28388745 0.52403903 0.37452352 -0.52556324 -0.38402858 0.60618645 -0.25363997 0.050766744 0.40622824 0.10908955 -0.3852714 0.13259594 0.40457547 0.27927047 0.01860799 -0.024034137 -0.23868191 0.23173767 -0.4429936 -0.018632427 0.51998174 0.14366889 -0.0008939033 0.48932528 0.18096459 -0.30645698 -0.1693334 -0.5325176 -0.09838748 -0.08299661 0.11755883 0.3297411 0.020494862 -0.10056672 -0.49602395 0.6038629 0.018555498 0.77596825 -0.20045584 -0.24118043 0.27729258 -0.56940746 -0.54114926
but 0.34850964 -0.18913902 0.15668865 0.22676505 -0.12586446 0.15742618 -0.23249106 -0.27972272 -0.08337776 -0.114992 -0.21183662 -0.114500016 0.4692899 0.2521037 -0.2002446 0.020945052 -0.37773806 -0.2659458 0.3250492 -0.03815729 0.19148876 -0.6425521 0.080449075 0.068905964 -0.2087881 -0.0026893767 0.034414377 0.1415513 0.20781656 -0.5537428 -0.36314628 0.015454102 -0.5022469 -0.39312014 0.07724295 0.036381457 0.14139983 -0.039039057 0.41971922 0.14300957 -0.36597073 -0.27183235 0.05493616 -0.022036036 0.06910516 -0.22325043 0.23445165 -0.384851 -0.37300703 -0.0141058415
for 0.11869131 -0.03970144 0.54408807 -0.029765828 0.15646136 0.27773193 -0.28109446 0.2121967 -0.19940828 -0.22312255 -0.054662894 0.007692976 -0.0625325 0.26761976 -0.07363177 0.10854625 0.022633124 -0.16340512 0.28023618 -0.036958672 0.48864517 -0.110931225 0.06753568 0.11606282 -0.014181697 0.062328447 -0.10913356 0.20346448 -0.19524181 -0.31297675 0.4393884 0.12443593 -0.3647029 0.01324058 0.06110981 -0.3817991 -0.16033429 0.08084108 0.2875559 0.31983456 0.07155032 -0.050725818 0.34955415 0.35812643 0.15261564 -0.19928409 0.523668 -0.22905084 0.06418235 -0.19724733
they 0.38313922 -0.66595054 -0.22032683 -0.18867949 -0.3993752 -0.21790327 -0.095669724 0.10577142 0.32543746 0.7964707 -0.5012764 0.3596069 -0.103387535 -0.18849075 -0.48972285 0.02949114 -0.011031026 0.06800303 0.140933 -0.1853347 0.35407624 -1.1565232 0.034588598 0.51533264 -0.8380546 -0.55668336 -0.83050245 0.39452597 -0.4069928 -0.039242625 -0.4033425 0.3704635 -0.44993263 -0.020495152 -0.09691033 0.019161124 -0.019550862 -0.447046 -0.4188318 0.42703098 -0.23579441 -0.52970487 -0.38583466 0.4688754 -0.37862387 0.13999435 -0.24280503 0.31454936 -0.64250046 -0.0304005
so 0.11151383 -0.58634114 0.22702259 0.07326474 -0.37662277 0.3602882 -0.09540586 -0.119996764 0.08175557 0.18901886 -0.19027714 0.22878376 0.24439809 0.15962407 -0.3648937 -0.057699677 0.39850622 -0.39483988 0.39567316 -0.1593347 0.20289283 -0.16023195 -0.38392898 0.41808254 0.025025332 -0.37784213 0.06910428 0.1495267 -0.27521843 0.1931317 0.040461212 -0.15594456 -0.40002462 -0.32870618 -0.20055711 -0.03330696 -0.07877832 -0.33983874 0.39187542 0.11504681 -0.03760101 0.3101415 0.42196918 -0.30547318 -0.09449223 -0.07469824 0.31398132 -0.28044367 -0.25725666 -0.2852924
be 0.57158875 0.019423546 0.41046205 -0.18500686 0.4971546 -0.3948644 0.5123924 -0.09304543 0.59205985 -0.47449002 -0.11989422 0.18170303 0.051649574 -0.38254276 -0.2619747 -0.05890735 -0.30804676 -0.070030354 -0.05814519 0.15130801 -0.15887822 -0.39594576 -0.16314872 0.028497 -0.7377186 -0.53714263 -0.1171153 -0.06617278 -0.034265414 -0.14155635 -0.20895067 0.25587136 -0.06749615 -0.3235091 0.23063557 -0.17692566 -0.33250627 -0.46733132 -0.2382189 0.76677346 -0.8199753 -0.27884695 -0.19184987 0.19052386 0.21156982 -0.09439419 0.30709752 0.46532595 -0.2440152 -0.5136341
not 0.81389713 -0.75910807 0.03545107 0.04625856 -0.07669715 0.10209283 -0.47991332 -0.38244554 -0.05155222 -0.18974139 -0.007074954 -0.014063785 0.5852991 -0.4768431 0.065866984 0.013837224 -0.22282994 -0.42708486 0.122665465 -0.3257685 0.058215745 -1.0655837 -0.16626036 0.12492525 -0.37637743 -0.1138091 0.014097947 -0.109475024 0.22873001 -0.30054837 -0.2040284 0.5566039 -0.3006045 -0.13623671 -0.73331505 -0.22179285 0.18876478 -0.7359207 0.010798791 0.6573789 -0.62997997 -0.0019425034 0.36436138 -0.48261794 0.043658253 0.27665347 0.38780442 -0.051479932 -0.8912046 -0.34655437
very 0.33144954 -0.13043697 0.11250781 0.041165605 -0.31030902 0.77895916 -0.16135283 -0.43929714 0.051502813 0.21301138 -0.1242791 -0.25814852 0.2515515 0.05856784 -0.08552318 0.027117833 -0.26469812 0.088554665 0.18646297 -0.0448215 0.1499501 -0.335199 -0.5019926 -0.103500366 -0.08290366 -0.5336372 0.25497428 0.3355738 -0.23305516 -0.046909202 0.18249725 0.15501529 -0.010831753 0.009051974 0.042679597 0.0921138 -0.25729936 0.04158316 0.54280066 0.25780386 -0.29069543 0.36011487 0.1937722 -0.17050081 0.14239205 0.27942133 0.42266443 0.037867676 -0.14283307 -0.3985422
what 0.012446776 -0.40908766 -0.0677288 0.41151282 -0.029379448 0.026070565 -0.1402038 -0.37766743 0.030957516 -0.06001048 0.13629055 -0.4778189 0.09995036 0.3600088 -0.024332786 0.31105688 -0.44226652 0.059842356 0.41035014 0.10749811 0.23416735 -0.6480516 0.10801945 0.15524195 -0.56456226 -0.13157545 -0.2820529 -0.2875122 -0.37641695 -0.12337863 -0.039563973 0.1720971 -0.5672466 -0.40632513 -0.95622754 0.21414967 -0.2598036 -0.2755005 0.015049361 -0.18371572 -0.36209926 0.11808856 -0.31101766 0.0952658 0.061335616 0.0506781 0.27009708 -0.31404683 -0.6241468 -0.71333784
this 0.6612919 -0.10427715 0.6449488 -0.012606427 -0.083344325 -0.045528032 -0.41316336 -0.33444634 -0.45894796 0.136606 -0.18971552 -0.18330504 0.14607757 -0.09370207 -0.32403103 0.45279625 -0.2668782 0.2886092 0.04120862 0.22843485 0.28977022 0.002556328 -0.10191461 0.40387034 -0.05226729 -0.35061115 -0.007713281 0.70021826 -0.24290171 -0.39306313 0.0476709 0.28049582 -0.03229385 0.17656827 -0.012997314 -0.20689419 -0.059950303 -0.19851011 0.13437164 0.17689733 -0.18614984 -0.41684338 0.300979 -0.13581727 0.12988427 -0.026436694 0.71588606 -0.0033553415 -0.17363162 -0.29150304
little 0.34051374 0.39280087 0.16890615 -0.16920789 -0.01966882 0.4320055 0.04478907 0.10005573 0.069463074 0.057232507 -0.19252422 -0.2505981 0.09195366 0.27431533 0.16190268 0.32849333 -0.26722863 0.3810744 0.15622208 0.14888853 0.6522081 0.10343654 -0.46821025 -0.03332862 0.1487891 -0.06367784 0.13452409 0.5525905 -0.5417286 -0.46921924 0.3657644 0.010215614 -0.18122986 0.019883867 0.2397662 -0.1070642 -0.31199867 0.3352095 0.52226835 0.37831247 0.31560013 -0.13212636 0.056451354 0.04340454 0.09874276 0.15776643 -0.083417326 -0.18643467 0.16663347 0.017963933
he 0.1689057 -0.6988267 0.054433763 0.24961981 0.15403305 0.14796625 -0.16063584 0.10732242 0.11457466 0.5279385 -0.18460478 0.18768983 -0.019826218 -0.105121925 -0.042150997 0.058637846 -0.39687285 0.2275119 0.3134849 -0.18523192 0.18666524 -0.6977918 -0.3904523 0.19448778 0.043957166 -0.4029249 -0.53653544 0.43480062 -0.19633271 0.37215933 -0.5796584 0.060377173 -0.22788201 -0.06331483 -0.13714504 -0.20703168 -0.226092 -0.26015502 -0.037654415 0.41139978 -0.1640184 -0.17629232 0.063247666 -0.077361844 -0.30637905 0.26218605 -0.08461613 0.0021960423 -0.38916388 0.038564127
out -0.09111134 0.10497303 0.35601246 -0.050706297 -0.37032917 0.304081 -0.30011988 0.2224995 0.09147952 -0.07826402 -0.57258964 -0.08458807 -0.03793522 0.39328843 -0.066071786 0.085110284 0.07507584 -0.044743225 -0.002287984 0.27086413 0.5412993 0.09165469 0.006847669 0.08974374 0.04256864 0.20085962 -0.08830263 0.3150271 0.16759428 -0.12644772 0.041932594 -0.076485366 -0.36731565 0.043985337 -0.24514845 0.20470075 -0.27939457 0.2167335 0.11760856 -0.20548901 0.11997756 -0.0996655 -0.052209426 0.032938533 0.18574734 -0.13217449 -0.0524464 0.06737804 -0.1463578 -0.14122654
is 0.056911457 0.42597425 0.53550655 0.15725401 -0.025247246 0.16276957 -0.15766618 -0.0127796745 0.22836456 -0.11188358 -0.08196485 -0.21888375 0.080422685 0.07037875 0.40711153 0.15803197 -0.19577149 -0.29581875 0.0870057 0.4235847 0.42695045 -0.3266404 0.32939714 0.14227311 -0.17161909 -0.2237134 -0.040253244 0.20569114 0.22507817 -0.13649496 0.059379507 -0.0029268272 -0.12429957 -0.30481148 0.11542249 0.19315293 -0.45694298 0.10058828 -0.17705497 0.119985394 -0.30367813 -0.35335797 -0.031009078 0.06388057 0.44523597 -0.17953141 -0.07687154 0.35578558 -0.33875996 -0.18916297
one 0.24715273 -0.16151702 0.05938233 -0.27076605 -0.07803777 0.11316929 -0.03711833 -0.050949905 0.11896554 0.27573517 -0.24645151 0.07157558 -0.20181173 -0.0081074145 -0.19381009 0.20396389 -0.27806377 0.42787915 -0.050535187 0.13745189 0.32356426 0.14508474 -0.2813389 0.2727239 -0.20948875 -0.19290675 0.16973545 0.3475543 -0.21002525 -0.06463863 0.09744206 0.3725508 -0.2696511 -0.08820843 -0.27638733 -0.12210874 -0.4109856 0.014369839 0.14854759 -0.0023080546 0.019761087 -0.16388434 0.0033962643 -0.1784426 0.08033099 -0.102713645 0.16812244 -0.024621727 0.027352538 0.04048057
down 0.33429343 -0.48922515 -0.024475597 -0.5424853 -0.19357519 0.3514163 0.06797587 0.34044263 -0.04167005 0.066330895 -0.29135814 0.18672334 0.33426523 0.28883076 -0.53645355 -0.15286416 0.28274238 -0.008407526 -0.05335638 0.0139441285 0.15195166 -0.11120876 -0.13038245 0.11916648 -0.07335667 0.2105825 -0.107058816 0.42640573 -0.16482393 0.043152254 0.10457072 -0.11983056 -0.25769913 0.23026957 0.12551838 0.08842283 0.104774 -0.012549174 0.49398845 0.11842479 0.28683475 -0.27479032 -0.06736526 -0.072237305 -0.11217681 -0.48988307 -0.10373792 -0.25679305 -0.17480832 0.2772831
up 0.3120733 -0.33245838 0.35103074 -0.24542879 -0.13456987 0.6459501 0.038166832 0.27553746 -0.17959186 0.2143626 -0.11463645 0.016436663 0.42946872 0.29251653 -0.18424052 0.07607284 0.05660901 -0.04757301 0.12905957 -0.059719976 0.12448573 0.13588859 -0.069114484 0.122502565 -0.048472356 -0.06384919 0.10902479 0.25927305 -0.04529822 0.0336914 0.12820064 -0.06885422 -0.13215545 0.2837487 0.083461285 0.09547933 -0.039862894 -0.107022986 0.449971 0.12748814 -0.024775762 -0.4127167 0.120350525 -0.15075685 0.086390145 -0.086608745 0.06185349 -0.18311547 -0.3256375 0.19978888
there 0.434264 -0.45106158 0.0797139 -0.33233172 -0.2659743 -0.4391002 0.123023205 -0.56423384 0.049913827 -0.06255695 0.5297447 0.2810067 -0.06745129 0.32422554 -0.07769591 0.18185924 -0.23935255 0.49962795 0.2836081 0.18182775 0.44927016 -0.72304684 0.07920765 0.37510777 -0.23786576 -0.7637891 -0.6846376 0.041101534 -0.36998066 -0.027895832 -0.09145178 -0.21442887 -0.35325122 -0.0042909994 -0.025818087 -0.38856286 -0.620214 -0.23642668 -0.19097537 0.24692248 -0.04945869 0.21324272 0.158213 -0.30704328 0.39790076 -0.12752698 0.4098708 -0.18286863 -0.096854515 -0.8822968
if -0.08827473 -0.3641771 0.45360988 0.3325522 0.24114782 -0.26351056 -0.03856038 -0.21610901 0.1525654 0.10548425 0.04909345 -0.2483211 0.26487097 0.030306324 0.11507412 0.24314348 -0.102194384 -0.13503554 0.5833756 -0.024291692 0.2722633 -0.33393815 0.4491063 -0.008282973 -0.3240633 -0.30084643 -0.7236711 -0.1099758 -0.024777126 -0.0010951475 -0.40151942 0.1251969 -0.3309566 -0.6502327 -0.17295961 0.012994689 0.2807257 -0.4817471 -0.25812522 0.36641467 -0.01805266 0.12533866 0.2653691 0.040498585 -0.11614204 -0.2511149 -0.016430821 -0.044634294 -0.38889796 -0.09732839
his 0.028741868 -0.20587993 -0.025693646 -0.09693065 0.043152906 0.09697092 -0.03819028 0.5277751 0.121456556 0.2627574 -0.3376685 -0.14304416 -0.14924997 0.08996671 -0.324924 0.32122913 0.08780132 0.52171814 0.11358881 0.43619844 0.43139616 0.73216814 -0.31301308 0.21049325 -0.1542609 -0.15257417 0.015282029 0.8196614 0.011603079 -0.27095193 -0.046195425 -0.23347972 -0.18219356 -0.39210033 0.41631907 0.05933295 -0.114914075 0.36254138 -0.065019324 -0.04072896 0.15476651 -0.8040589 0.18570298 0.33043182 -0.42141426 0.26303494 0.266493 -0.19138281 0.21897654 0.14477767
then -0.13413349 -0.04649544 0.3479426 0.11933125 0.14898917 0.24888174 -0.036184072 -0.009000511 -0.09096034 0.4125905 -0.35456476 -0.19690098 0.1095649 0.16101293 0.011224951 -0.0063392073 0.12793529 -0.27004433 0.3144171 -0.16879006 0.2580737 -0.2250398 0.1309705 0.06606638 -0.18897541 0.016286 -0.19963732 0.14880252 -0.110418655 0.035481524 -0.035967246 0.03881897 -0.24106398 -0.14048791 -0.14405468 0.09437028 -0.072210595 -0.10946677 0.10628666 -0.006412317 -0.2406931 -0.3077778 0.27925935 -0.031426646 0.10197715 0.065469876 0.026203318 -0.2994456 -0.39747998 0.017620102
about -0.09404728 -0.20681795 0.15294272 0.03078923 -0.010541619 -0.050132886 0.031465877 -0.019408066 -0.031270534 0.2390366 -0.15283924 0.10829656 -0.18355554 0.13684179 -0.023700226 -0.039559502 0.17127103 0.060194686 0.25952014 -0.110534534 -0.109012164 -0.33057478 0.3100317 0.082678825 -0.013422946 -0.070922635 -0.19400156 0.3278638 -0.05958392 0.24203847 -0.015799856 -0.28538176 -0.17214282 0.21744171 0.19170885 -0.19648226 -0.04876445 -0.11563233 0.26030055 0.22167027 -0.29023904 0.20127021 -0.34486356 0.3901671 0.012881323 0.055212073 0.2514802 -0.04035856 0.15380475 -0.2928164
no 0.34864005 0.14471419 0.4585247 -0.22002955 -0.0886357 -0.10759553 -0.26331717 -0.7077113 0.01111336 -0.06355926 0.68350375 -0.09525588 -0.007238001 0.091682605 -0.063906096 0.099441946 -0.2425489 0.21394053 0.024910817 0.36054876 0.19937968 -0.28950536 0.10914436 0.50641036 -0.2634809 -0.75255847 -0.1506209 0.235842 0.23693545 0.050595213 0.06517867 -0.036174063 -0.15572388 -0.40832078 0.0535085 -0.07518962 -0.19964987 0.13276699 -0.17382812 -0.110389695 -0.38658893 0.15871683 -0.16364923 0.20590672 0.26472035 -0.28264096 0.7745232 -0.123740666 0.38977534 -0.45200345
them 0.19762683 -0.090088025 0.11196073 -0.23316266 -0.048527107 -0.17067856 -0.03936547 -0.02869205 0.009108877 0.046214763 -0.4986672 0.039102994 -0.04199087 -0.17665124 -0.36066127 0.2643392 -0.02185979 0.26945576 -0.008835597 0.03106749 0.13288556 0.24065301 0.06036559 0.24128626 -0.03355803 -0.021286283 -0.14627223 0.017057803 -0.12523803 -0.19543421 -0.16968326 0.11591388 -0.19421752 0.11141991 0.086930245 0.27226433 -0.011147323 -0.2200211 -0.10167737 0.069568515 0.070593394 -0.24646156 0.06244386 -0.07401171 0.006694287 0.014045502 0.035716467 0.053237457 -0.09011696 0.1799042
like 0.16137978 -0.25149152 0.056639425 0.086837 -0.13516842 -0.08906707 -0.051744137 0.08536994 0.491072 0.05863843 0.062950455 0.07213166 -0.21454515 -0.29262355 -0.18366005 -0.33498845 0.12502429 -0.4331378 0.1464933 -0.13503018 -0.02152947 -0.42885646 0.211022 -0.20516483 -0.06687573 -0.13906944 -0.1682637 -0.12809134 0.11591422 -0.0028663059 0.033823524 0.34663397 0.23513348 -0.14116304 -0.4422819 -0.1534736 -0.25028938 -0.15620974 -0.13857576 0.4808597 -0.44269744 -0.06342398 -0.1511733 0.07659161 0.060584944 -0.036524035 -0.009808939 0.10657053 -0.3032058 -0.1486543
were 0.18634188 0.032315254 -0.07626254 -0.37499923 0.048967145 -0.2586313 0.49322295 0.0018233322 0.21649832 0.1314072 -0.3836224 0.081926174 -0.113648966 -0.015696986 -0.17785893 0.34036478 0.41118968 -0.38702193 0.118234 0.1622654 0.3951676 0.14614463 0.20985122 0.012094715 0.092719965 -0.25436717 -0.2675258 0.6327633 0.593325 -0.2906495 0.3072239 0.3623337 -0.017522927 -0.12729798 0.31121117 -0.09954031 -0.035329975 0.17105527 -0.072660126 -0.12249054 -0.1886464 -0.39312997 0.0045399573 0.36416104 0.016485007 -0.179888 0.14980927 -0.30123082 0.07664158 -0.29487643
would 0.15379593 -0.3802753 0.4894554 -0.33772194 0.20456368 -0.06735177 -0.09208669 -0.11768004 -0.016391644 0.2163411 0.18254355 -0.40926823 -0.35315418 -0.067295834 -0.20210107 -0.22156563 0.2913508 -0.52539533 0.14764741 -0.3653744 0.37153453 -0.19011052 0.41435137 0.46650684 -0.11809449 -0.37947294 -0.07749685 0.36919972 0.059651237 -0.10955362 -0.10176864 -0.2119895 -0.17047402 -0.426917 -0.7918428 -0.27426472 -0.046904497 -0.29171163 0.094184496 0.17359512 -0.7313568 -0.28043264 0.029620787 -0.08935254 0.28565904 0.122740366 0.14765498 0.1635549 0.04139938 -0.38819933
herself 0.17761272 -0.29918242 0.2177588 -0.048543032 -0.041072454 0.4087569 0.08428453 -0.35653174 -0.013821679 0.10998109 0.28930604 -0.22632466 0.13581386 -0.20327431 -0.005267824 0.0026885262 -0.33689436 0.06356304 0.008681333 -0.35139862 -0.21467015 0.12866898 -0.10678462 0.1111527 0.057313535 -0.24502276 0.2145126 0.13028735 0.06917875 0.3919707 -0.07598985 0.14004755 0.1001262 -0.11455706 0.047815308 0.024990914 0.12482314 -0.20357913 0.3757459 0.14188637 0.09462637 -0.34531748 0.27864227 -0.07397352 -0.04143731 -0.054882497 0.34157288 0.15383887 -0.4140804 0.043318823
know -0.12928218 0.2780661 0.042986996 0.5252527 0.36108923 0.018078156 -0.37791288 -0.026533186 0.27781337 0.23275994 -0.3039197 0.09039188 -0.0931832 -0.15672538 -0.25375217 0.105750926 -0.28639543 -0.44877478 0.117664576 -0.18621376 -0.00967305 -0.26140118 0.5716689 0.06320562 -0.42848504 -0.32589856 -0.32820445 -0.021523044 -0.017358953 -0.1849059 -0.06925611 0.22936071 -0.2521423 -0.20400906 -0.24754857 0.13196035 -0.46007162 -0.12605302 -0.5770276 0.012885986 -0.6510933 -0.107678205 -0.07762398 -0.035562735 0.19262037 -0.20902194 0.057768833 0.06134858 -0.35514274 0.020408604
went 0.23537114 -0.5232867 -0.33260536 -0.10571881 0.360406 0.393375 0.46325555 0.0029426217 -0.29011127 0.50302577 -0.74912685 -0.12260314 -0.11087998 -0.1042756 0.24244326 -0.08021432 -0.36154324 -0.38279945 -0.12467487 0.12897016 0.15848985 -0.3580472 -0.19004273 0.35317484 0.62681365 -0.2901306 0.04724373 0.5892268 0.021683006 0.057911262 -0.06531556 0.006144018 -0.13207369 -0.29870793 0.05392789 0.076579645 0.45479986 0.15973184 0.14938526 -0.226386 0.036174107 -0.87048113 0.45941907 -0.30284926 -0.56722003 -0.5610672 0.116522625 0.04050572 -0.41660812 0.23529162
again 0.030983195 -0.54116297 0.18504076 -0.35453126 0.02195752 0.36194643 0.043749772 0.21943296 -0.086415194 0.3888893 -0.07308334 -0.014425943 0.07278162 -0.024411477 -0.07467891 -0.15910797 -0.0075067733 -0.22779512 0.16792677 -0.14902472 0.16244115 -0.17168139 -0.033621952 0.18347128 -0.0576562 -0.17545913 -0.1541007 0.2930484 -0.23644324 0.047704346 0.07513528 -0.21609859 -0.09773974 -0.03775326 -0.051302116 -0.022933666 -0.13764384 -0.10893204 0.33949873 0.17775446 0.21474366 -0.20756438 0.12171581 -0.083816595 0.12284174 -0.22746946 0.18255416 -0.1329114 -0.27724352 0.02174365
do -0.042861257 -0.35480767 0.16802152 0.1301599 0.2884484 0.07481937 -0.19407482 -0.28377607 0.3098066 0.31704596 0.0014426927 -0.13847458 -0.06830003 -0.109443806 -0.027648149 0.42885494 -0.43512678 -0.37155363 0.2343059 -0.15806445 0.043272637 -0.2741474 0.31578922 0.34261766 -0.45204666 -0.41133392 -0.114208885 -0.043294445 -0.1474314 0.017520212 0.08312658 0.3289736 -0.2978677 -0.38650995 -0.3964626 0.38855976 -0.1747193 -0.30779988 -0.21492372 -0.049558613 -0.56546515 -0.2602258 0.028364299 -0.044386517 0.020553544 -0.26582414 -0.021020344 0.16197649 -0.59918886 -0.22362597
have 0.079665065 -0.3743901 0.15411939 -0.02464524 -0.0045699584 -0.23782922 0.05871703 0.046308637 0.5830545 -0.17523637 -0.18445617 0.11115649 0.0809167 -0.252546 -0.33212063 0.13143307 -0.09159479 -0.17896985 0.21177141 0.10928126 0.05487969 0.055948373 0.14907312 -0.015467751 -0.742035 -0.3893901 -0.385539 -0.20934823 -0.08343153 -0.23042265 0.071667425 0.08092668 -0.3561669 -0.32696778 -0.26250127 0.10351904 -0.28199145 -0.36471027 -0.46020228 0.32703105 -0.6023207 -0.3644461 0.3110466 0.070930034 0.30156738 -0.19082752 -0.007983945 0.12370988 -0.43503922 -0.36390468
when 0.09187911 -0.17803639 0.23682494 -0.10000498 0.117969126 0.21581979 0.113452986 -0.07413426 -0.122914 0.15034921 -0.03604043 -0.13297063 0.3552572 0.07583326 -0.2201651 -0.106577024 0.17312914 -0.3842441 0.22750066 -0.20791458 0.512557 -0.12669098 0.21676713 -0.15115438 -0.2222375 0.2569864 -0.13436833 -0.1599676 -0.07878129 -0.16181685 -0.12840194 -0.11196485 -0.38878193 -0.2571085 -0.16778165 -0.0069400356 0.21579263 -0.1752913 0.11023144 0.14019163 0.15435879 0.03397443 0.23251744 -0.0068689943 0.10252938 -0.137744 0.011635718 -0.4559599 -0.31036225 0.009412831
or 0.14803146 -0.11602452 0.098902985 -0.083669424 0.09539877 0.18864588 0.25622964 -0.02302971 0.21367908 -0.23271541 0.001268245 0.007454848 -0.17678906 0.16474971 -0.22539327 0.1860912 0.25233397 -0.11495496 0.26155987 -0.031230792 0.09987854 0.4987988 0.018893724 0.063536964 -0.2693559 0.17464085 0.103992864 0.14516136 -0.38881683 -0.43213814 0.029053833 0.17926806 -0.049410474 0.04817088 -0.10229701 -0.057908032 0.21177365 0.20538017 0.007426438 0.26495624 -0.086473726 -0.21780881 0.06480965 0.5494452 0.11904051 -0.058143772 0.015988778 0.121593766 0.1168289 0.06490891
could -0.06899525 -0.43266377 0.547198 -0.08604266 0.23866299 -0.24842216 0.1423069 -0.21832334 -0.2507028 0.39912897 -0.026038337 -0.31974763 -0.057442296 -0.61817396 0.3006601 -0.041914355 0.1948571 -0.46384117 0.29801002 -0.3127392 0.109079726 -0.42334113 0.3220538 0.20959805 0.050406218 -0.5240103 -0.37421766 0.12414291 -0.46358263 -0.063659824 -0.2558339 0.32453558 -0.10997479 -0.375622 -0.7316257 -0.028228562 0.13085508 -0.48038214 -0.3088286 0.51517123 -0.5418717 -0.12648141 0.45790246 -0.25803936 0.37540752 -0.3615796 -0.32001406 0.115341276 -0.24247736 -0.47181565
thought 0.35830677 -0.18440379 0.08671295 -0.010430277 0.0099076675 0.20160276 -0.11809143 -0.673344 -0.14158459 -0.050915074 -0.22803551 -0.090970665 0.4982351 -0.17182113 0.28396544 -0.02837947 -0.20705496 -0.112162046 -0.32608667 0.35484222 0.1003318 -0.4765668 -0.0077809216 0.1808473 0.11081528 -0.117695235 -0.074035026 0.1452263 -0.33689868 -0.0054691983 0.0188666 0.35148305 -0.04244035 0.08723121 0.013191584 0.21726649 0.03235335 0.08670391 -0.027622437 0.010097897 -0.57587266 0.03096779 0.2825966 -0.5394679 0.5260633 -0.2707439 -0.008368013 0.15135835 -0.43900535 -0.02876044
off -0.01422777 -0.44403708 0.15960586 -0.14330626 -0.08315109 0.06711647 0.09695013 0.27931952 0.07169113 0.32994244 -0.35036632 0.03330001 -0.16046317 0.2942019 -0.28789696 -0.10685023 -0.0051606405 0.0879046 -0.052143592 -0.07783087 0.2798602 0.35983026 -0.17280237 0.20877957 -0.2031987 0.09945719 0.13379425 0.24635309 -0.02137273 0.16000658 0.2899763 -0.042931244 -0.18993953 -0.0033295357 -0.07026417 -0.048295327 0.10094609 0.1071909 0.39953572 0.05292258 0.2655363 -0.1670559 0.038523994 0.2604683 0.09044422 0.10938077 -0.01999998 -0.31612366 0.15072227 0.18456389
queen 0.18033783 0.0009561825 0.018486353 0.039042957 0.07263058 0.07704725 -0.35123625 -0.016880617 -0.1443759 0.32970703 -0.088355705 0.069621846 0.105940476 0.2967757 0.09980825 0.070694536 -0.26524428 0.14734788 0.22412477 0.10511367 0.073073365 -0.077110514 -0.086030394 0.10154141 0.03634046 -0.045785513 0.13548201 0.40094653 0.03656613 0.19185711 0.008722164 0.12054005 -0.12770605 -0.18202342 -0.034438673 -0.116810545 -0.29179922 0.022386858 0.18562758 -0.29883158 0.3724039 -0.36452416 0.12436561 -0.28450194 -0.3549187 0.20850347 0.29096535 -0.23598301 -0.14695694 -0.20085977
time 0.10407051 -0.25393325 0.27366728 -0.03468491 -0.2559165 -0.22231144 -0.1733437 -0.2979718 -0.24283914 -0.11456537 -0.013312402 0.19817919 -0.047276612 0.24206531 -0.26615915 0.13274701 0.091071 0.18964428 0.03978587 -0.24648106 -0.04818204 -0.15883946 0.2488814 0.05776847 0.34811994 -0.3115207 -0.2668603 0.34272736 0.41759837 0.047462724 -0.14131103 0.053047672 -0.04282502 -0.002761603 0.092541605 -0.2349359 0.2309308 -0.28834558 0.15655652 0.32082272 0.22424136 -0.2522934 -0.16838543 -0.07165031 0.15486367 -0.013812402 0.29638305 -0.031353638 0.12543662 -0.4512013
how -0.14218402 -0.109464444 0.06846145 0.15560673 0.34954816 0.067310266 -0.13564527 -0.10524498 -0.028167335 -0.040162496 -0.15598412 -0.099735506 0.2387675 -0.014228566 0.027256966 -0.062196452 -0.012021434 -0.2676152 0.26456392 -0.09755248 0.15614837 -0.35717344 0.24463321 0.07669001 -0.290129 -0.24887604 -0.18630819 -0.006895791 -0.29500386 0.019769963 -0.13177975 -0.21320802 -0.52897245 -0.22329098 -0.45598334 0.21093561 -0.070596434 -0.432752 -0.20480625 0.11046697 -0.16056934 -0.036116205 0.12944074 -0.049518242 -0.06732369 -0.25945082 0.35901374 -0.24153982 -0.26829976 -0.23127745
me 0.007242038 -0.21115047 0.12760833 -0.086042136 -0.12261278 -0.1129486 -0.30705503 -0.040292323 0.3338456 0.29260203 0.1583193 0.079244934 -0.13782252 -0.101598315 -0.2824297 0.25607082 -0.33623374 -0.018955095 0.020859204 -0.058998734 -0.028312426 0.089758135 0.28481212 0.46440342 -0.61897457 -0.43264353 -0.08438283 0.20268951 -0.16819668 -0.12617373 0.06630322 0.1701284 -0.2402208 -0.3050598 -0.28175843 0.24798477 0.0109740235 -0.10841318 -0.32261577 -0.020615507 -0.41724375 -0.10235468 -0.12688491 -0.11678587 0.10652294 0.015094504 0.025817214 0.010536793 -0.11141109 -0.15611191
into 0.16368616 -0.253175 0.49622533 -0.42468834 -0.25786865 0.60089415 0.036789212 0.48740107 0.117296815 0.1028853 -0.18449178 0.078300774 0.06716865 0.32451648 -0.13868387 -0.20464523 0.20233403 -0.10714807 0.02633559 0.17579989 0.491764 -0.058158785 -0.10561045 0.09384553 -0.09568214 0.07182582 -0.17479895 0.48684886 0.1108534 -0.19415443 0.43819842 -0.21328346 -0.09329408 0.05329972 0.23640476 -0.35372692 -0.23129432 0.19783638 0.48065564 0.26825544 0.19614068 -0.21452136 -0.20923986 0.06888127 0.25181133 -0.023251392 0.07454096 -0.06265798 0.17597458 0.01143287
see -0.10113833 -0.12778728 0.20304196 0.27369082 0.34781933 -0.16505113 -0.15001118 -0.15015678 0.24176474 0.076676786 -0.11750471 0.09116418 0.008615673 -0.42138568 0.2527124 0.057247385 -0.12840942 -0.47509938 -0.021407112 -0.24271382 -0.024235062 -0.24938434 0.1846482 0.15174825 0.058035653 -0.25671247 -0.3843164 -0.18096043 0.05035048 0.069211386 -0.06620641 0.29093292 -0.41275504 -0.27620986 -0.16860417 0.047757357 0.095342495 -0.23561464 -0.21294062 0.30220553 -0.15640067 -0.008069834 0.21694781 -0.025872588 0.14672428 -0.43799996 0.1539603 0.31907406 -0.27714857 -0.29164684
did -0.11821528 -0.40905166 0.21973044 -0.09992748 0.22189696 0.03315123 -0.102726825 -0.4913213 -0.2999187 0.3713612 0.17699808 -0.16496193 -0.1315646 -0.30795905 0.20937677 0.14665934 0.09393254 -0.8980024 0.077405095 -0.42255124 0.11367148 -0.5269197 0.6291314 0.03414035 0.23435543 -0.42646506 -0.0044789365 0.45606095 -0.22829767 -0.11688391 0.009382394 0.49132052 0.21424282 -0.3035496 -0.42992878 -0.05874018 -0.04899672 -0.2821447 0.07524089 0.102718845 -0.7652878 -0.42245704 0.29314536 -0.1691335 0.14042741 -0.01087172 -0.16027483 0.0033147023 -0.33848125 -0.5430532
who 0.4027591 -0.4960594 -0.058202967 -0.057461187 -0.029080296 0.18076967 -0.35238585 -0.10698468 -0.24107443 0.54511017 0.026870575 -0.02694081 0.23720944 0.25618002 -0.021213239 0.15673961 -0.39407006 -0.042581424 0.40307257 0.36236104 0.27954486 -0.2814104 0.08313589 -0.036333397 0.04891517 -0.09184734 0.10949766 0.38660723 -0.39337462 -0.22270909 0.01837092 0.31415525 -0.36201715 -0.28807434 -0.39093715 -0.15253358 -0.2141316 0.059978627 0.05367464 0.10085703 -0.049790323 -0.07155886 0.12201678 -0.064179234 -0.29460254 0.07773945 0.43053523 -0.24474221 -0.0070817284 -0.30720755
can -0.009051748 -0.02539855 0.2880711 0.3206905 0.30274886 -0.25484315 0.17298129 0.0032289298 0.16003366 0.29333112 -0.17290993 -0.004845536 -0.29673016 -0.2559293 -0.44777396 -0.11705816 -0.18740043 -0.3866327 0.23032178 -0.27895918 0.2932101 -0.1551442 0.3385538 0.30107853 -0.4616909 -0.369328 -0.27585936 -0.069330655 -0.42048964 -0.17060144 -0.41196507 -0.021606065 -0.096807 -0.39737034 -0.76571363 0.056128748 -0.20368098 -0.11442056 -0.26778844 0.3165609 -0.689507 0.2116728 0.024179023 0.003586078 0.53530467 -0.33317554 -0.15841708 -0.17676295 -0.23165028 -0.27049235
well 0.122239284 -0.16802081 0.54770344 0.3313596 0.10610394 -0.2219171 0.23336399 -0.4081668 -0.15534821 -0.050933324 0.05191302 -0.23678349 0.021797474 -0.07673805 0.15940496 0.42613465 -0.5643067 -0.023585537 0.51076746 0.09310508 -0.064419426 -0.2655283 -0.09189477 0.23704542 0.18911001 -0.16362154 -0.4593061 -0.122345604 -0.110449255 -0.11787194 -0.6050368 0.15763828 0.08305072 -0.2896316 -0.09312055 0.047635484 0.23837869 -0.46599248 -0.09279576 0.48132405 -0.14319345 -9.3277864e-05 0.05977036 -0.26061085 0.055930313 -0.1877073 -0.2512366 0.1646334 -0.41057783 -0.013103734
m 0.285646 0.20809546 -0.023094062 0.096660264 0.010214569 0.027503446 0.17072973 -0.13381277 0.06584485 0.5234987 0.43070742 -0.42264727 0.11237912 -0.5995544 0.05447258 0.0150705045 -0.204353 -0.20898695 0.26895252 -0.22475223 0.34911406 -0.50032586 -0.044360213 -0.1247498 -0.2760874 -0.3896664 0.045825582 -0.2076312 -0.47569668 -0.36782154 -0.10137884 0.31415308 0.2517837 -0.03097529 -0.3053576 0.07323555 -0.30538952 -0.073299274 -0.27610794 0.4184711 -0.5153378 -0.23289119 0.36269715 0.03574585 0.2614487 -0.010787504 -0.4506886 -0.22895664 -0.6006374 0.23326491
your 0.14009228 0.02810681 -0.05662823 0.2152075 0.069251806 0.1912752 -0.51135397 0.23846611 0.13804133 0.21741952 -0.15752704 -0.060252618 -0.23694529 -0.0028645396 -0.07366125 0.36756894 -0.4865848 -0.06316879 0.29006505 0.110480204 0.21970797 0.0014890125 0.046375282 0.21226333 -0.3593196 -0.19625726 0.23832814 0.4534292 -0.13130742 -0.3040529 -0.13739665 -0.060228564 -0.14930674 -0.3877851 0.12568578 0.22901785 -0.27331567 0.29320794 -0.07928178 -0.14348502 -0.37021482 -0.4855417 -0.069123864 0.041298296 -0.26086092 0.12110289 0.23583452 -0.37259495 -0.11537066 0.09683653
king 0.0063893986 -0.09610657 0.15610763 -0.043154504 0.09969641 0.2967462 -0.19226556 0.1681782 -0.11363371 0.50844055 0.06831501 0.07411438 0.13715786 0.18756895 0.0033709074 -0.15370546 -0.37681642 -0.07312218 0.29608446 -0.053994432 -0.18301995 -0.3533055 0.054130487 -0.11482946 -0.006198644 -0.043941226 0.111612305 0.23673576 0.060335465 0.31893915 0.04956189 0.091714025 0.063699804 -0.0072679142 0.15523505 -0.23991747 -0.35987207 -0.04362962 0.15290526 -0.15364364 0.21656317 -0.4418186 0.039335307 -0.03330342 -0.29830208 0.2868315 0.33939436 -0.1917729 -0.3557118 0.030610273
don -0.12803103 0.10057263 -0.108247936 0.3943514 0.27088246 -0.3652953 0.19890173 -0.07731159 0.4123912 0.42034364 -0.22265878 -0.05898819 -0.27142277 -0.18242228 -0.22137032 0.036927246 -0.33884937 -0.09266102 0.17345431 -0.36649808 0.35970345 -0.092925586 0.33315635 0.35348907 -0.6232314 -0.66936314 -0.094948895 -0.28395307 -0.67015374 -0.20090516 -0.25257185 -0.07796367 -0.18839961 -0.40520322 -1.0196849 0.12548316 -0.21956338 -0.1667163 -0.3942326 0.0743838 -0.94681394 0.39026073 0.05986579 -0.14640361 0.3387494 -0.115479685 -0.1804797 -0.41298497 -0.44771698 -0.09627129
now 0.13932376 0.0065463595 0.0005678157 0.12694572 0.056652337 -0.006488573 -0.30700073 -0.24374788 -0.07101934 0.16574772 0.036261417 -0.2807854 0.34048754 -0.09329588 0.049242165 0.21271904 -0.18990877 -0.14492446 0.19557118 -0.082661584 0.040723618 -0.23799461 0.16453077 0.020062737 -0.13190603 -0.33304685 -0.04452705 -0.04906975 -0.30593577 -0.2290969 -0.16329348 0.006624153 -0.29593408 -0.091402665 -0.13848215 0.09752203 -0.007455958 0.012658338 0.002270188 0.15572919 -0.21455607 -0.030959375 0.24444486 -0.16800363 0.2277083 -0.16655622 0.12981245 -0.20558453 -0.43764326 -0.061538406
by 0.03471817 0.03997948 0.25684103 -0.066705056 -0.16148353 0.22322899 0.025876857 0.3265566 -0.013152103 0.29807782 -0.16949442 -0.021897813 -0.09228155 0.32828197 0.056321383 -0.07290851 0.08420151 -0.04565657 0.098310046 0.14375584 0.43130076 0.01292412 0.047169913 0.08809241 0.092185505 0.038394224 0.07173097 0.40470165 0.04643447 -0.29091898 0.31005818 -0.06813833 -0.06106571 -0.009845307 0.26634157 -0.23955181 -0.1505299 0.17662813 0.20420435 0.20922121 0.22435746 -0.15943165 -0.14641333 0.1389987 0.027291086 -0.13336019 0.29910168 -0.20248185 -0.03742428 0.08608995
began 0.21637608 -0.37484932 -0.064936 -0.33306536 -0.18390176 0.2838588 0.19177496 -0.0019105332 -0.05959961 -0.078170106 -0.17685778 -0.010886847 0.07482801 -0.07490734 0.07262373 0.040704597 -0.20226909 -0.052732278 -0.23243968 0.0057544583 0.2175782 0.03533825 0.062877156 0.12620185 0.07745462 -0.078561336 0.15392631 0.1907102 -0.113682054 -0.04853051 0.43621308 0.070693456 0.3081409 0.25628176 0.18434073 0.1665063 0.26574174 0.12668529 0.2973396 0.08416201 0.08209711 -0.3481599 0.23354864 -0.20046438 0.12936921 0.039041255 0.0309014 -0.043874238 -0.1448438 -6.0627906e-05
its 0.35310555 -0.24132599 -0.21527322 -0.5415876 -0.19237587 0.2907867 -0.13123614 0.35275617 0.15579352 0.2698329 -0.32130733 -0.13259435 0.0046299477 -0.041149374 -0.4393382 0.20897898 0.14457043 0.6495841 -0.082836926 0.4353145 0.3663401 0.6692147 -0.41975823 0.23647718 -0.2089808 -0.13533035 0.06983093 0.6579666 -0.09201443 -0.15739025 0.056124784 -0.3482467 -0.11774799 -0.028888755 0.4072991 0.15842406 -0.09699089 0.28223753 0.21555375 0.20705785 0.17454809 -0.39039922 0.037349943 0.4462817 -0.4145632 0.11941693 0.20019257 -0.10708471 0.40188438 0.11215194
ll 0.0057989275 -0.2724212 0.34551394 0.11572893 0.14401913 0.13419157 0.18428141 -0.08020568 0.07433393 0.29142767 0.023274725 -0.24280272 -0.12045364 -0.113314286 -0.305662 -0.012694942 0.10237922 -0.27064288 0.3408589 -0.50225043 0.46544495 0.03792183 0.4394959 0.10523747 -0.6410637 -0.23678756 -0.23062041 -0.1747575 -0.32438368 -0.31892738 -0.04409504 -0.45071602 -0.20288394 -0.23793496 -0.4619165 0.2804389 -0.08847924 -0.12038375 -0.1947794 0.19967367 -0.65747637 0.06931162 -0.024929829 0.32620677 0.44937882 -0.24467887 -0.111495055 -0.09272416 -0.28819534 -0.23768
an 0.20329311 0.007687266 -0.1030854 -0.01979776 -0.10005121 0.29022145 -0.24690542 0.031612784 0.03953448 -0.031574607 0.09042765 -0.18619597 -0.2789635 0.03972948 0.1353905 0.36417165 -0.14079441 0.34126803 0.32824367 0.33623126 0.2008914 0.15645954 -0.20142394 0.16809204 0.18179841 -0.23707408 0.3266311 0.5743209 -0.19451022 -0.28840083 -0.05681133 -0.16646175 -0.011043289 -0.36383942 0.15131907 0.15125857 -0.2025903 0.30072558 0.046280064 -0.018892271 -0.21137734 -0.0017839805 -0.07425868 0.28322336 -0.26199317 0.38553932 0.3886666 -0.08112349 0.25169948 0.17651618
my 0.44017556 -0.11441139 -0.17219958 0.059691507 -0.08348245 0.18391353 -0.12207788 -0.08085331 0.2548515 0.3604144 0.010688606 -0.31449124 -0.15284151 -0.09625417 -0.35608354 0.27127168 -0.28048548 0.3199215 0.27253723 0.0554873 0.15732615 -0.006634891 -0.11829342 0.35594198 -0.572734 -0.58083075 0.1099505 0.37935942 -0.127691 -0.3031471 -0.1448877 -0.3245338 -0.092057236 -0.061820004 0.044943172 0.10016978 -0.22484307 0.21126199 0.10679641 0.21642692 -0.34578624 -0.23124851 -0.009722529 0.21498516 -0.25151318 0.06357077 0.42981875 -0.13933252 -0.1397731 -0.072774775
turtle 0.36024022 -0.2848537 -0.53791624 0.59714305 -0.14582658 0.5055748 -0.003160933 0.4300882 0.026261725 0.62523484 -0.12077993 -0.21290608 -0.17646423 1.0054241 0.6095205 -0.080504455 -0.77893025 -0.16328783 0.25033298 0.06389981 0.078512564 -0.3729282 0.30069306 -0.36534125 0.18166026 0.41794232 0.6677292 0.20795329 0.13104351 -0.42468488 -0.117437296 0.33845803 -0.17957467 -0.15839373 -0.2825754 -0.36267692 0.26935548 0.19293953 0.14092694 -0.5328817 -0.25408515 -0.7225396 0.17670414 -0.10123554 -0.13923456 0.17796387 0.04638408 0.16349179 -0.12939294 0.26450267
way 0.14438063 0.26282048 0.13394524 -0.107297964 -0.037273977 -0.0023906394 -0.15904346 0.13979167 0.032818474 0.09750941 -0.18012549 0.033189435 -0.004373053 0.08705709 -0.1674006 0.20983881 0.05987936 0.038672447 0.09937118 0.07839889 0.09737735 0.3961794 0.12337244 -0.19874667 -0.10297379 0.087813154 0.035233177 -0.07079899 0.1470715 -0.17187177 -0.0056667537 -0.026205929 -0.08009388 0.032796077 -0.11925048 -0.04117418 -0.060621597 0.14852642 0.16463573 0.11767405 0.29634514 0.13873442 -0.3068135 0.08310506 -0.009525423 -0.26988167 -0.0067929365 0.031504888 -0.054161485 -0.20836441
hatter -0.08505717 -0.055078767 -0.035016984 0.23979259 0.17598242 -0.032062974 -0.025890367 0.0563178 -0.17404915 0.32714888 0.22103864 0.071395606 -0.03815078 0.16714191 0.03935154 0.041156717 -0.28331894 -0.13664788 0.38608864 -0.16495691 -0.23800898 -0.34688765 0.040590573 -0.15296741 0.07186186 -0.02562045 -0.009281352 -0.05615045 -0.108110934 0.1882944 -0.34491786 0.15675928 0.092050955 -0.17412032 0.0071896007 -0.1034906 -0.17595845 -0.15751925 0.072135456 -0.064722486 0.23638824 -0.12599458 0.08326575 -0.022999017 -0.35289842 0.06298194 0.098689936 -0.3386715 -0.32410058 0.13068174
mock 0.22261496 0.16841324 -0.32451004 -0.044115398 0.16371949 0.25913015 0.3366395 0.45905682 0.48411292 0.208979 0.20791912 -0.015085546 -0.34493566 0.39744776 0.058041234 -0.27660853 -0.5581883 0.13921604 0.41706702 0.7790908 -0.02071172 0.075169146 0.09879288 -0.28579336 0.41849947 -0.32133666 0.39526328 0.55787235 -0.07092069 -0.0316969 -0.14788121 0.25825876 -0.33473212 -0.53817165 -0.25762644 -0.4749444 -0.51037264 0.07471944 0.6630222 -0.4133542 0.06536026 -1.3899392 0.30929193 0.039203413 -0.52872443 0.34194738 0.30242905 -0.26633468 -0.23369405 -0.35125598
quite 0.13632189 -0.31769678 0.022804867 -0.10187892 -0.029568348 0.13208692 -0.04148888 -0.34280095 -0.16429187 -0.08410943 0.07349018 -0.0037352974 0.20142546 -0.2154422 -0.0602497 -0.10264814 -0.013574315 0.20572104 0.021306131 0.009542089 0.12798318 -0.12402149 -0.13186127 -0.010410169 -0.062872075 -0.20101398 -0.07982207 0.06498323 -0.13529672 0.07909663 -0.135241 -0.03261111 -0.04921515 -0.036078326 -0.17824052 -0.06671853 -0.19647896 -0.31896737 0.046848968 0.44316214 -0.15424599 0.3818359 0.17502809 -0.024115736 -0.009122314 -0.008710196 0.15598124 0.04765407 -0.093113445 -0.15558158
are -0.23244047 -0.0772986 -0.05434084 0.12766114 0.026077898 -0.20149583 -0.14737554 0.24797547 0.38253763 0.33600327 0.06932152 -0.110217996 -0.46458906 0.09618456 0.0030140087 0.45705798 0.2452039 -0.48588043 0.12684086 -0.25960478 -0.018981056 0.11529678 0.27436194 0.040786676 -0.19655338 -0.3503983 -0.046910536 0.29036373 0.16285941 -0.18665488 0.050948676 0.25107384 -0.10339161 -0.29236653 0.0010552614 0.033175558 -0.1888185 0.17020777 -0.20806088 -0.19713035 -0.27080944 -0.3439205 0.041343857 0.407413 -0.1487336 -0.037955884 0.05093123 -0.32594416 -0.1867313 -0.2749877
gryphon 0.036622304 -0.057261772 0.034069728 0.088638134 0.050620347 0.2202276 -0.10273051 -0.011061203 -0.04894875 0.35078132 0.09909191 0.008202704 -0.056260437 0.2360034 0.073851846 0.033511292 -0.1765868 -0.21254128 0.22514844 -0.040719867 -0.17777662 -0.2751533 0.02041381 -0.03387154 0.08178438 -0.0025719157 0.12815306 0.090835944 -0.04956253 0.14807598 -0.064926624 0.25756606 0.1558861 -0.13851653 0.05217525 -0.053704333 -0.119537026 -0.02116957 0.17521158 -0.2009979 0.055076793 -0.42408606 0.030056832 -0.09511255 -0.20185702 0.12469531 0.106989175 -0.2097888 -0.58533317 0.13712078
think 0.08316298 -0.16608687 0.00959541 0.27532503 0.019744106 -0.24319172 -0.41125447 -0.558182 0.20070098 0.01451765 0.10536639 -0.016798083 0.30996937 -0.41926387 -0.08325627 0.025021002 -0.08489241 -0.24880357 0.10892226 -0.071509674 -0.1336961 -0.17500558 -0.048159882 0.11873336 -0.26190102 0.053484518 -0.29462028 -0.29961762 -0.06707691 -0.099937074 -0.1864187 0.35326385 -0.1928638 -0.3735643 -0.15051858 0.30801627 -0.21352306 -0.3131213 -0.44128495 0.107417785 -0.6389242 0.13975763 0.19320033 -0.09517163 0.057240568 -0.20208646 0.13533579 0.1632524 -0.3897879 -0.070046484
just 0.108045444 -0.32891428 0.4639717 0.1060472 0.23067608 -0.013948956 0.1186322 -0.3007303 -0.32955062 0.3699582 -0.22566338 -0.20707832 -0.046310555 0.04701856 0.22284792 0.31021512 -0.21288866 0.085150115 0.337022 0.18878321 -0.10664198 -0.1954587 -0.006410488 0.07962372 0.3383633 -0.01604006 -0.37853843 0.10084785 -0.04918803 0.1689577 -0.37571314 0.07631004 -0.30104774 -0.14489377 0.00267738 0.12725338 0.14816175 -0.24673769 0.0037271937 0.33398855 0.0343354 0.056069136 0.12766403 0.0021498837 -0.16696028 -0.2676543 0.22111802 -0.059721515 -0.24486083 0.042410035
their 0.021382209 -0.31503108 -0.40835956 -0.46939206 -0.14284901 -0.0053324364 0.17818846 0.44685817 -0.010745851 0.2552037 -0.3243605 -0.09581618 -0.22464052 -0.020460978 -0.3985951 0.10029254 0.46044558 0.27817783 -0.09448581 -0.12642007 0.36492532 0.276745 -0.29520315 0.22618155 -0.14857219 -0.13909973 0.022338133 0.5435308 -0.10755871 -0.30465618 0.018379297 -0.31376475 -0.12489279 0.026608732 0.23747027 0.042426683 0.3692112 0.17225987 -0.08623363 -0.09651912 0.092977114 -0.43453842 -0.09958175 0.37824583 -0.63519084 -0.10146367 -0.07528161 -0.34610677 0.19494314 0.19222791
rabbit 0.31243017 -0.22938567 -0.057986908 -0.27072206 -0.16191675 0.12559009 0.04546528 0.14635044 0.033060916 0.17027938 0.28510812 -0.08680176 0.1879421 0.32574466 0.34240153 -0.03919428 -0.23442276 0.06910111 0.22020365 0.32830247 0.46373144 -0.20144163 -0.18192166 -0.0465456 0.38985026 -0.22686863 -0.12959667 0.65612435 0.0532366 -0.16748971 -0.00097334234 0.12178923 -0.0047935825 -0.10336002 0.27529034 -0.28733814 -0.29486585 0.28142893 0.2068196 0.10631625 0.5557888 -0.33845696 -0.022679282 -0.19463527 -0.122815914 0.1989817 0.30189475 -0.23941456 -0.07778757 -0.17276044
much 0.02173372 -0.2945133 0.31895152 0.064469226 0.0042583207 0.01423197 -0.043523487 -0.46214968 -0.07922666 0.007502561 0.16293436 0.008927863 0.02938956 -0.4029814 -0.09832784 0.16086803 -0.35403046 -0.17949387 -0.016047183 -0.03712972 -0.21844737 -0.4120776 -0.2582997 0.21868591 0.04973869 -0.35062152 0.099716716 0.22647582 -0.107225545 0.025699915 -0.029869767 0.15185066 0.01930729 -0.05928628 -0.044184636 -0.071349055 -0.081276715 -0.23969942 0.230013 0.47641808 -0.32679442 0.22727007 0.10436164 -0.19998376 -0.16905865 0.04020942 0.024912164 0.28604332 -0.10650308 -0.23356321
some 0.19863369 0.030941654 0.16696674 -0.1674856 -0.158195 -0.058265466 -0.19576769 0.018140206 0.13439262 0.34913757 -0.2605693 -0.17848536 -0.299988 0.014022078 0.11843242 0.36039138 -0.1402978 0.40148765 0.09027198 0.22471114 0.10234317 0.21657336 -0.010392459 0.49524888 0.07347176 -0.2882443 0.097130775 0.46325046 -0.16799566 -0.183482 0.054483812 0.07821072 -0.05551381 -0.15569888 -0.11385727 -0.07958952 -0.06418785 0.17074272 0.058670904 0.059828453 0.07028726 -0.073071614 -0.15342835 0.33957088 0.0018426734 0.050550926 0.2505293 0.078872345 0.26862955 -0.095419355
here 0.20314254 -0.06483911 0.09170233 -0.11715924 0.13329217 0.19461872 -0.06088245 0.100119136 -0.14022605 0.27805334 -0.0795712 0.06792421 0.20145647 0.08178516 -0.050415494 0.02111435 -0.07031604 -0.05941231 0.22168893 0.117410615 0.28661615 -0.09190572 0.19857286 0.23344788 -0.2602714 -0.2763836 0.1401992 0.16243257 -0.23012328 -0.14740631 0.14536555 -0.0013710372 0.006849474 -0.027214222 -0.07440418 0.05521741 -0.19599098 0.0559333 -0.11605105 0.0165412 -0.36403218 -0.21026091 -0.09264161 -0.059052575 0.039678182 -0.15048148 0.17709582 -0.2821973 -0.2685394 0.19085456
say -0.009792573 -0.117479876 0.32271197 0.3464304 0.34224916 0.22171806 0.016954055 -0.07829288 0.16310433 0.14579216 -0.10727085 -0.06527418 -0.06869399 -0.07649849 0.10434677 0.18062434 -0.48748624 -0.26334897 0.28404945 0.06323321 0.12288306 -0.26277894 0.33964172 -0.1176752 0.040293757 -0.1166823 -0.21112755 -0.14038858 0.042294513 0.02207098 -0.16471563 0.14807622 -0.24665014 -0.0974906 -0.1317167 0.15243445 -0.15397736 -0.24075136 -0.18037845 0.20015925 -0.16518766 -0.12286114 -0.15177618 0.10826526 0.18124236 -0.32848585 0.16734552 0.22539279 -0.33965176 -0.11353234
first 0.28301743 -0.18331906 0.19454762 -0.10540093 -0.15506962 -0.016390298 -0.25052616 -0.29293132 -0.4366475 0.124796115 -0.033899736 0.033170402 0.15374747 0.097853094 -0.1817426 0.05261414 -0.1477156 0.095818356 0.36372864 0.06666803 -0.18538359 -0.17966247 0.038717646 0.06221267 0.06241968 0.009949811 0.21913129 0.21088567 0.030485317 -0.17355792 -0.17355281 0.034989014 -0.14534217 -0.2850416 0.11927459 -0.035566725 0.01729534 -0.18676047 0.1356772 0.1760283 0.21151103 -0.38272685 0.14117822 -0.23701406 -0.28423148 -0.0074764024 0.39526314 -0.40945423 -0.093869396 -0.06413419
go 0.1573328 -0.33875892 -0.22100826 -0.014071155 0.37796804 -0.101367645 0.24911314 0.037524257 0.17054154 0.19802554 -0.25336537 0.17513542 -0.2772637 -0.13749489 -0.1072137 -0.06466515 -0.24977072 0.1793745 0.00800965 -0.15930828 -0.0043597766 -0.1676845 -0.03440329 0.2343566 -0.082661614 -0.32428044 -0.1965259 0.03383016 0.057699855 0.17567587 -0.17239602 0.07118848 -0.07494937 -0.13987781 0.015492347 -0.11485047 0.07222851 -0.3055061 -0.2791168 -0.17647348 -0.062364057 -0.18972841 -0.05044489 -0.056366477 -0.38205954 -0.33020058 0.21157305 -0.08667078 -0.2381545 0.15499257
only 0.23871158 -0.06805929 0.18832105 0.2035211 0.1334579 -0.05312611 -0.086277574 -0.10820456 -0.06948434 0.06163196 0.025087472 -0.07083183 0.23770939 0.122583635 0.13823362 0.074902356 -0.0126899425 -0.15164089 0.4123875 0.075215235 0.28341535 -0.29523864 -0.021458577 -0.079865314 0.06918654 0.019615967 -0.17646529 0.18664081 -0.019454375 -0.1304665 -0.15378252 0.11395111 -0.22554834 -0.1660074 -0.40569472 0.04377182 -0.048556745 0.04947879 -0.10995329 0.3290734 -0.06502821 0.052797005 -0.050986405 -0.003820808 0.1786784 -0.21279076 -0.002541539 -0.17494285 -0.18412521 -0.18212463
which 0.024056304 -0.0018232733 -0.0318953 0.054188754 0.08100401 0.032055832 -0.1552613 -0.10704425 -0.08849451 -0.06171386 -0.3082138 -0.01201371 -0.09282752 0.12387324 -0.112376414 0.09195247 -0.09713333 0.1413923 0.10203726 0.043788843 0.16555102 0.0572819 -0.13256717 0.08581223 -0.028774632 -0.1070481 0.20784374 0.35631463 -0.055599526 -0.14037742 -0.057045694 -0.09724002 -0.37561315 -0.26377806 -0.33227703 0.035129465 -0.08248239 -0.009038821 0.19995745 0.24628066 0.14800967 0.16153157 -0.059667725 -0.04295372 -0.03474426 -0.1369637 0.43446526 -0.108123474 0.18244706 -0.14784232
head 0.020049324 -0.6072727 -0.012963917 -0.14794968 0.046854023 0.2588306 0.19234873 0.27042475 -0.008149436 0.08736374 0.0095994845 0.08364436 -0.26647475 0.26957065 -0.24966101 -0.42431468 0.3319625 0.24996735 -0.06399981 0.084859416 0.14325824 0.2034112 -0.23935552 0.16721055 -0.19252478 0.22510207 0.12144049 -0.15993069 -0.010545831 0.16407408 0.1676928 -0.08985552 -0.40209538 0.25842312 0.17086293 -0.15330593 0.20346631 0.051013477 0.36787117 -0.2520876 0.2983814 0.14247008 -0.0034614117 0.1209039 -0.10858345 0.059932 -0.029980892 -0.13788976 0.29920936 0.1694357
thing 0.20813978 0.24353908 0.11107654 0.25774032 0.10948816 0.32969496 -0.050266672 0.03294049 0.015403207 -0.15190873 0.16161947 -0.13770245 0.13253947 0.20806444 0.19060303 0.19992444 -0.44889805 -0.025229398 0.29583374 0.21798557 -0.020120995 -0.117464714 0.11027425 -0.05762334 0.16815764 -0.049266297 0.33551908 0.025776997 -0.21903987 -0.23379217 0.07082436 0.16799444 0.050920878 -0.12863083 -0.056222636 0.014522192 -0.12967755 0.042929843 0.09854962 0.21402918 0.22161523 0.024514755 0.1672093 -0.0767426 0.01002723 -0.17360717 0.098838456 0.0013095264 -0.26245892 -0.05662216
never 0.119378716 -0.10065492 0.47248018 -0.02727328 0.19085616 0.10648083 -0.13425517 -0.23612066 0.008568347 0.22558165 -0.008237829 -0.25255948 0.41764224 -0.24072677 -0.1004889 0.05216999 -0.038221385 -0.3182279 0.16531253 0.08561135 0.055295344 -0.18501006 0.057689086 -0.0374544 -0.24611664 -0.033724163 0.025694434 0.15893258 0.06350005 0.15001614 -0.28212127 0.16676861 -0.24066533 -0.41556814 -0.1969776 0.15216017 -0.0068788435 -0.09688817 -0.19449048 0.20602123 0.10686707 0.051319707 0.20850015 0.21111405 -0.104365185 -0.17461734 0.2148565 0.1594158 -0.2925447 -0.14087646
more 0.1968109 -0.022513222 0.12752917 -0.14816116 -0.017023085 0.075038314 -0.06732841 -0.24168485 0.014548046 0.0016739852 0.05234956 -0.0067378217 0.07921598 0.25047603 -0.12926222 0.22018638 -0.01847188 0.08762762 0.051561654 0.17132916 0.11938591 -0.06693814 0.12700777 0.089650705 -0.12081147 -0.21542473 -0.103681706 -0.0053881407 -0.2236086 -0.16995211 0.06621772 -0.0773287 -0.21393558 0.0009578432 0.025693567 -0.003357288 -0.23775035 0.06738251 0.077157974 0.14133433 -0.3076515 0.16302177 -0.120376095 -0.06767883 0.3702537 -0.078643404 0.28943238 -0.20755588 0.19894083 -0.20191856
voice 0.009066935 0.14392948 -0.004231775 0.09521738 -0.017886542 0.16962871 0.08266583 0.26698378 0.13105795 -0.20725432 0.07184521 0.008432815 -0.112024166 0.2619475 0.02297691 0.0651049 0.014883456 0.048113186 -0.115195654 0.19963166 0.02014981 0.17378391 -0.21628608 -0.008878052 0.14073718 0.0051320926 0.09188656 -0.21014668 -0.103398435 -0.1125887 0.25991476 0.032363854 -0.077511124 0.09984212 0.29094484 -0.082399175 0.018111126 0.302293 0.25780055 -0.011484108 0.29979107 0.19530022 -0.048171613 0.057215184 0.021551337 0.15140805 -0.022381205 0.031818744 0.23751383 0.014733939
get 0.2463988 -0.27664128 -0.04402762 -0.029012097 -0.003515545 -0.11595887 0.031800266 -0.16059087 -0.08708948 0.18466608 -0.1579161 0.046614207 -0.061128024 -0.5044784 -0.14123248 -0.032010697 -0.3042062 0.0689044 0.03291931 0.12856583 -0.25239995 0.0558628 -0.08753075 0.12032066 -0.076220945 -0.220715 0.2447813 -0.1687024 -0.040897764 0.06870069 -0.21450064 0.10229043 -0.16295986 0.039384328 -0.1766782 0.100236505 0.0037888584 -0.3365033 -0.06803358 0.20865007 -0.024693178 -0.13102134 0.09608688 -0.008168379 -0.14177212 -0.2312375 0.29325327 -0.009337493 -0.29832077 0.012841713
come 0.11599164 -0.42337224 -0.19120257 -0.052049473 0.18978362 0.082260974 -0.03545985 -0.049476054 0.075285345 0.3478442 -0.046531964 0.13351035 -0.07089374 -0.10619458 -0.1677242 -0.076670244 -0.12085475 -0.018801872 -0.056796633 0.07541624 0.06993847 -0.23046581 0.057028677 0.31591377 -0.10098333 -0.3244821 -0.25581512 0.058022246 -0.113715544 0.07441962 -0.14123727 -0.02182273 -0.33780438 -0.18388104 -0.03559432 -0.106838085 0.09816929 -0.16321407 -0.178273 -0.21110992 0.0021480725 -0.27040386 -0.008806042 -0.08601756 -0.29512173 -0.3070319 0.22548115 -0.06517924 -0.14064498 -0.06558026
oh -0.15069371 0.18853976 -0.11480629 0.24272181 0.16881755 -0.04614936 -0.24067996 -0.10947735 0.3197992 -0.053823672 0.08923979 -0.18093619 0.08915322 -0.14988309 -0.13757749 0.06850616 -0.15455952 -0.14200076 0.0954288 -0.14388551 0.15199295 -0.09024285 0.13671634 0.26921296 -0.593988 -0.18277265 -0.19872005 -0.3785552 -0.17761113 -0.1961103 -0.12637612 0.013449672 -0.1077082 -0.1213786 -0.12612648 0.32657567 0.07789187 0.025916044 -0.23936251 -0.035634864 -0.36794516 0.12690556 -0.085818805 -0.10498929 -0.026619326 -0.16295896 0.00042563077 -0.12258067 -0.26062524 -0.00053444813
looked 0.062672414 -0.47562394 0.21031132 -0.49497604 -0.19745049 0.08559146 0.24361195 -0.2580177 -0.52416086 0.34709662 -0.3880893 0.24005884 0.3507144 0.00090412016 -0.046516456 0.028949909 -0.031786416 -0.09007379 -0.31453907 0.109110154 0.13211718 -0.22883686 0.23320682 0.13745444 0.057911456 0.13164662 0.09214899 0.47739622 -0.14871933 -0.15696138 0.27375332 0.07886241 0.2865715 0.17438911 0.47904584 0.09984139 0.25728387 -0.005567902 0.29751232 -0.05452318 -0.32465595 -0.36341906 0.16908056 -0.35094455 0.23053627 0.07857313 -0.024165383 -0.32830703 -0.09019114 0.43637213
got 0.1440319 -0.405954 0.010519658 -0.20640309 0.08305395 0.15940444 0.20918642 -0.23330414 -0.11564022 0.09045764 -0.047232453 -0.06258288 0.151996 -0.25011083 -0.1602947 -0.23097637 -0.0233525 -0.0573549 -0.06955091 -0.10825052 -0.008164491 -0.04932823 0.13371976 -0.027434863 -0.10941942 -0.16844615 -0.060599342 -0.0676973 -0.004108968 0.08677509 -0.0900581 -0.007834606 0.06921541 -0.1364235 -0.08667719 0.13460746 0.27528116 -0.15151982 -0.030832618 -0.013538938 0.14809904 0.031020146 0.15823139 -0.18569237 -0.039091483 -0.27348867 0.08488028 0.09187541 -0.33158797 -0.08003129
ve 0.2379883 -0.14503375 0.2464826 0.0178335 0.13883375 0.27541345 0.072599605 -0.061732166 0.2772362 0.46143916 0.018129047 -0.25622755 0.23027869 -0.19902341 -0.13201104 0.010242747 -0.07697553 -0.25210807 0.33036387 0.20606393 0.19399807 0.10161066 0.06903993 -0.18266429 -0.3017916 -0.22962607 -0.25056168 -0.1027822 -0.13835303 -0.11106424 0.00030411297 0.19604002 -0.10438694 -0.14261246 -0.21251167 0.28761086 -0.17746249 -0.12929155 -0.31329226 0.20148216 -0.109955005 -0.034041196 0.23600402 0.08014075 0.09095506 -0.27446926 -0.06462328 -0.041218754 -0.3078622 0.0022530158
must 0.06919175 -0.012834367 0.49109086 0.17529607 0.21232533 -0.12627941 0.19134165 -0.12848708 -0.06559099 0.11795862 0.36596316 -0.32100087 -0.16210194 0.08582796 -0.3994124 -0.26080924 0.168394 -0.37558505 0.20786758 -0.3101809 0.21241622 0.010114103 0.53434074 0.03844999 -0.31238696 -0.31002057 -0.15738797 -0.21151555 -0.072102726 -0.08028293 -0.0864686 -0.22578268 0.22715573 -0.27310285 -0.587867 -0.08622908 -0.07843505 0.060456514 -0.3776689 0.1746479 -0.7208562 0.13486013 -0.08320158 0.024344347 0.4794104 -0.0931073 -0.14608932 -0.15570217 0.16309167 -0.111140855
mouse 0.2284515 -0.17176902 0.023277044 0.02135613 -0.077585965 0.20808981 -0.19758298 -0.04646288 0.13596821 0.03793646 0.34582293 0.07308762 0.11597811 -0.02907891 0.01439657 -0.046074662 -0.34132886 -0.20530209 0.06434461 0.042383283 -0.12207642 -0.36590824 0.14287938 -0.16851367 0.05568707 -0.06346565 0.03246276 0.03817084 -0.029079126 0.08082265 0.05233366 0.2698003 0.06420091 -0.07177314 -0.20026793 -0.31073412 -0.22762842 -0.15601222 0.05346738 0.04213603 0.008454338 -0.10937908 0.043046776 -0.11710607 0.08669382 0.13938273 0.18376163 0.077852815 -0.22338274 -0.19456446
after 0.1074899 0.02696222 0.29401353 -0.028813181 -0.089241065 0.27485678 0.18349673 -0.007929694 -0.17411602 0.15312648 -0.06953914 0.014625641 -0.00080635515 0.13893841 5.313952e-05 -0.1657641 0.089093275 -0.0040837293 0.14258437 0.019004844 0.29864573 -0.33016846 0.0152853485 -0.052955765 -0.03317782 0.099714585 -0.29174453 0.2073908 -0.066117756 0.041067906 0.18019612 0.01378124 0.17673254 0.16273354 0.19573107 -0.07319473 -0.18213306 -0.01665836 -0.0047615785 0.150518 -0.32695216 0.038526256 -0.044418905 0.17801072 0.19280453 0.2123657 -0.013122137 -0.06320345 -0.088709064 -0.008550587
him -0.03494266 -0.21416211 -0.054878443 0.09619958 0.16625914 -0.081227474 -0.045639526 0.0039627943 0.1945198 0.20279188 -0.14964437 0.01859185 -0.070091866 0.022515213 -0.06574017 0.12461906 -0.15699868 0.1098843 0.17260195 -0.11907524 0.07154193 0.24830687 0.12392482 0.10802164 -0.025928635 -0.10550822 -0.057239845 -0.031168858 -0.17259847 0.0004918061 -0.18616872 0.06850695 -0.079281844 -0.23970951 -0.18657929 0.21616769 0.07666727 -0.20118606 -0.17363596 -0.012340842 0.057454467 -0.120189205 0.07947352 0.016048502 -0.068392545 0.049566787 0.15505242 -0.054865804 -0.18368796 0.1079536
duchess 0.10393483 0.04624223 0.15985645 0.011811659 0.052840408 0.21535105 -0.11715818 0.028086705 -0.19884178 0.19901697 0.29826388 0.017686673 0.03952336 0.20906316 0.16138834 -0.051787753 -0.2619567 -0.036139317 0.28428516 0.027854517 -0.15020826 -0.25144646 0.034026135 2.191006e-05 0.08465343 -0.09481732 0.21003857 0.0183346 0.08992045 0.2824663 -0.06818979 0.014641453 0.029119935 -0.10958433 0.15084752 -0.18604505 -0.25541347 -0.09139931 0.18209569 -0.14418115 0.25928438 -0.21406929 0.14107996 -0.21451175 -0.21663985 0.1924118 0.3104611 -0.14192471 -0.19722687 -0.08166143
such 0.20728545 -0.16332527 -0.039774716 -0.048311576 -0.18433489 0.10216975 0.117257975 -0.1506118 0.16232741 -0.20862503 0.26658064 -0.27429307 -0.1864585 -0.12375061 -0.07270202 0.23816969 -0.12642495 0.33287257 0.040248137 -0.013770425 0.20881145 0.03804173 -0.1943643 0.2326121 -0.11318659 -0.3125162 -0.06407421 0.13074283 -0.2696813 -0.26039055 0.022157852 -0.13714439 -0.035048857 -0.009914182 0.025910052 -0.06602357 0.09405376 0.075515494 0.2849879 0.35541478 0.014912307 0.12303673 0.19367297 0.115970686 0.22272393 0.03798952 0.008570696 0.24856183 0.21984354 -0.31961563
round 0.12694356 -0.32811496 0.1935043 -0.2615769 0.059609033 0.33348247 0.102572106 0.25102895 -0.21823485 0.07059828 -0.41213098 0.21971731 0.0848351 0.28006488 -0.28014445 0.015024507 0.2415173 0.025028558 0.11101055 0.06737677 0.2580631 -0.15356445 0.1525066 0.13835111 0.020447735 0.13799685 -0.3409356 0.41152728 -0.11810345 -0.05027959 0.12121273 -0.0415058 -0.24329968 0.34422547 0.30778593 -0.06541013 0.031868856 -0.054771647 0.11238873 0.178729 -0.01646793 -0.35660318 0.058295913 -0.057279218 0.18797255 -0.06366374 0.22536783 -0.18700904 -0.012037199 0.08635666
why -0.07517297 -0.098434284 0.025262333 0.27351832 0.02313825 -0.056783035 -0.06136594 -0.31552297 0.12367694 0.05787015 0.40469083 -0.034073908 -0.0002587504 0.07074629 -0.0191786 -0.066919334 -0.052207693 -0.35997653 0.19700958 -0.13700664 -0.03126343 -0.34443063 0.12592746 0.035821643 -0.21637721 0.0076085427 0.030704735 -0.09922275 0.14702737 -0.089585476 -0.0827841 0.20561229 -0.06299288 -0.41876325 -0.10754176 -0.052627478 -0.19470736 -0.00039427672 -0.023536667 -0.20241408 -0.40805867 0.030741608 0.11213313 -0.012728305 0.018578907 -0.034558516 0.075264335 -0.25147727 -0.08973752 -0.11002042
came 0.2027889 -0.14764525 0.10725979 -0.12838419 -0.23215543 0.37258443 0.21463153 0.14006147 -0.098751545 -0.16544724 -0.24623506 -0.009481968 -0.025079839 0.09903208 0.08175322 0.11858634 -0.08648991 0.020763244 -0.047614694 0.052436944 0.20033751 0.0055212565 0.01438628 0.034653623 0.42143765 -0.10095199 -0.018369507 0.4541587 0.07045759 -0.23830521 0.24542175 -0.0465156 0.040996443 0.12640566 0.2965367 -0.06339412 0.20287755 0.013739422 0.34855506 0.29906455 0.28512567 -0.34977943 0.08197925 -0.014731857 0.0532284 -0.023822796 0.016524194 0.09000256 0.04638524 0.023165481
other 0.099531755 0.16289057 -0.079890974 -0.24755272 -0.12785165 -0.050150447 -0.113856055 0.2467536 -0.07198786 0.20523451 -0.38475665 0.023629215 -0.11978199 0.093067445 0.0618032 0.2501267 0.051486567 0.17009406 0.06587943 0.27490133 0.08028311 0.11920687 0.046208072 0.08694037 0.086968176 0.053103775 0.07611479 0.11365696 -0.071576454 -0.06422365 0.03824043 0.10954026 -0.07007745 0.13631803 0.12924643 0.09959538 -0.10385011 0.20462407 0.07098976 0.013354686 0.26968363 -0.25649217 -0.18641426 -0.0081968475 -0.1097467 0.024665503 0.23386614 -0.13411938 0.009518516 0.17051943
tone -0.019156057 0.29405433 -0.01531288 -0.00081816723 -0.10434983 -0.0009318507 0.21999055 0.096398525 0.07672751 -0.28081205 -0.001461187 -0.16486675 0.018303642 -0.03082732 -0.07720325 0.21774878 0.07895789 0.033814296 0.042897888 0.082282506 0.034922794 0.012443281 -0.11716871 -0.065627754 -0.104468904 0.031220406 0.08643796 -0.036861807 -0.1610124 -0.27427313 0.10788041 -0.07295347 0.25622895 0.07785228 0.13120337 0.08381065 -0.045877144 0.2725211 0.14003612 0.20548089 -0.148135 0.13844681 -0.077380784 0.11536688 0.23119618 0.16984634 -0.19242045 -0.07883525 0.08910341 0.12080076
dormouse 0.12833461 -0.1834821 0.08443298 -0.17670111 -0.0035592471 0.07782866 -0.10426622 0.18597765 -0.015344987 0.3073211 0.09285769 -0.0030405514 0.009068425 0.059448477 -0.011382782 0.007977979 -0.10196103 -0.11738774 0.23571825 0.047110915 -0.07875778 -0.24161555 -0.14761002 0.053002153 0.082189254 -0.2070825 0.11024939 0.2580239 -0.043093123 0.17002821 -0.08695241 0.10913222 -0.050506044 -0.15004179 0.068862475 -0.26294813 -0.21932642 -0.029529482 0.11036353 -0.007554291 0.21485618 -0.28716996 0.00876355 -0.11775526 -0.22222361 0.1463575 0.16842002 -0.06883517 -0.16573831 0.034474637
over 0.054012045 -0.32379144 0.07312255 -0.20922992 0.0337875 0.17299181 0.057215244 0.07862965 -0.24585044 -0.12401232 -0.0834754 0.1670291 0.25726005 0.33402458 -0.2600312 -0.092636526 0.17876609 0.009630326 0.053951006 0.047197893 0.18562792 -0.17757532 0.10276777 0.060720634 0.05417503 0.09900853 -0.09963782 0.3657624 -0.064549714 -0.052834168 0.022928968 -0.25209165 -0.13192762 0.1345888 0.22315007 -0.025020234 -0.02916262 -0.07733153 0.06294118 0.030050728 0.04655894 -0.2681802 -0.09834872 -0.09872045 -0.00089641457 0.14352067 0.31751522 -0.26791474 0.06337601 -0.00798126
any 0.2421047 -0.06354221 0.25605443 -0.10145182 -0.22109286 -0.1941664 -0.024528936 -0.26490116 0.027221115 0.10352427 -0.11582126 0.090481885 -0.053936206 -0.14131643 -0.31730637 0.20699582 -0.27518213 0.2760788 0.031787682 0.1992585 -0.029765708 -0.13629858 0.115001895 0.30561516 -0.23914565 -0.1561203 0.080601454 0.18356082 -0.085862026 -0.010030053 -0.22590576 0.063766874 0.023707846 -0.22698714 -0.08377326 0.021246528 0.039412394 -0.034363434 -0.038974483 0.09741204 -0.5490272 -0.18612471 -0.0145280445 0.14696354 0.038298752 0.0694115 0.1761078 0.01796128 0.06325819 -0.08533167
back 0.008338143 -0.41663748 0.17209527 -0.15500455 0.15203214 0.17854443 0.07287324 0.31900483 0.17451757 0.14357795 -0.2271318 0.11965979 0.01967516 0.32512024 -0.060826402 -0.005341175 -0.03063913 0.044571295 -0.028128231 -0.023031056 0.012573627 0.021272019 0.23570238 0.12453566 -0.12132351 -0.030655026 -0.12623098 0.07214274 -0.038127143 0.22958791 -0.026272336 -0.06540168 -0.2577079 0.17286614 -0.03511038 0.08178181 0.10491312 -0.17274581 0.23000275 -0.053755995 0.20507818 -0.28916413 -0.1063782 -0.011565142 -0.095605895 0.07933042 0.07306519 0.11141223 -0.22485158 0.0014753855
two 0.14990352 -0.12338368 0.078961 -0.18619959 -0.11073273 0.07138019 0.015715681 0.21434696 0.21355948 0.11241171 -0.302917 0.10235889 -0.16937834 0.2157201 -0.017515633 0.26584494 0.073458485 0.10280574 0.19415312 -0.122875854 0.11427109 0.102499366 0.009604811 0.4180825 -0.03597816 -0.23594823 0.14807495 0.28892058 -0.43638337 -0.19831958 0.123890094 0.044469576 -0.15879042 0.057596643 0.10621701 -0.0036322172 0.036848903 0.123543516 0.1971529 0.23034704 0.037113573 -0.24423517 0.040226612 0.37105095 0.028045582 0.26235256 0.2689753 0.0840105 0.22686628 0.014510589
before 0.15479177 -0.23334733 0.3347821 -0.0643054 0.03694085 0.07339128 0.057502206 -0.2160311 -0.21888481 0.09262823 -0.095856756 -0.17511272 0.16094145 0.008807167 0.09944101 0.08088908 -0.04684439 -0.02287291 0.24225402 -0.13034348 0.13588805 -0.30724138 -0.14821613 0.032608215 0.25425258 -0.08489642 -0.06730889 0.21487048 -0.06099004 0.008495609 -0.20304342 0.045624357 -0.109396406 -0.1770102 -0.14880875 -0.12720855 0.12810583 -0.16489035 0.36440977 0.23435445 0.10468958 -0.044985585 0.3349239 -0.18909965 0.08146179 0.0010821451 -0.058988422 -0.010824399 -0.18127754 -0.18287337
great 0.10513117 0.17174242 -0.10229498 -0.16607578 -0.16982134 0.14262223 0.12055104 0.11767311 0.11482896 -0.20692782 0.069665186 -0.0900066 -0.108772136 0.21092357 0.0035798887 0.13756356 -0.044339295 0.44268784 -0.10595179 0.06284276 0.16937235 0.12512241 -0.18531571 0.10144256 0.039717153 -0.1336285 0.15709148 0.10508356 -0.19974385 -0.119177595 0.3071443 -0.036172956 0.15691318 0.34954262 0.1562916 -0.018603507 -0.07143112 0.11363028 0.20282638 0.048727687 0.1313809 0.08295928 -0.21663165 0.13540275 0.09067585 0.2515471 0.063930966 -0.018375827 0.25118035 0.09672369
been 0.25834304 -0.4602191 0.20423645 -0.048883263 0.3647874 -0.06659046 -0.13130951 -0.2646627 -0.04518721 0.3608393 0.056623723 -0.28155178 0.37515327 -0.29668897 -0.25025746 -0.09642292 -0.111466214 0.027975408 0.01946168 -0.19898352 -0.17726742 -0.28320947 0.12987849 -0.15088665 -0.33121958 0.039620396 -0.23423643 -0.02645669 -0.098575324 0.37049034 -0.33836254 0.340185 -0.21939105 -0.27146396 -0.5859613 -0.3151613 0.36425278 -0.21949188 -0.118784316 0.105903 0.0779211 0.3119947 0.04383188 0.29169232 -0.04869824 0.025893103 -0.02554154 0.29333842 -0.028556177 -0.24137564
re 0.033834077 -0.4437039 -0.07516545 -0.0019517153 0.006707882 -0.18508828 -0.058088005 -0.24210589 0.535752 0.0048403065 0.20533507 -0.11319593 -0.4381826 0.014990161 -0.34676594 0.44471723 0.15596513 -0.35346934 0.10405409 -0.23790795 0.08485304 0.13841559 0.4352522 0.121007174 -0.18674994 -0.090157054 -0.25424057 0.048018534 0.08886826 -0.1683438 0.2500193 0.31404686 -0.17595853 -0.3432707 -0.048308566 0.15486655 -0.010123346 -0.1351508 -0.1109713 -0.043182764 -0.44799954 -0.14659552 0.15123807 0.34722188 0.07399445 -0.11442461 0.013603674 -0.07594918 -0.14528206 -0.38054135
cat 0.021281563 0.08860206 0.11851641 0.28811404 0.10453685 0.014022201 -0.021202736 -0.09913843 -0.10266175 0.17060797 0.47461638 0.0076228455 -0.035063647 0.15364634 0.007822809 -0.11812368 -0.16353194 -0.1951137 0.37743363 -0.27206987 -0.31036803 -0.28062978 -0.009366332 -0.16605204 0.038209505 -0.022086509 0.04970992 -0.20628923 0.024569439 0.10345545 -0.2081806 0.092246786 0.059125856 -0.064016335 -0.063291624 -0.20855683 -0.1660928 -0.09868314 0.07502774 0.038833346 0.14003603 -0.002112525 0.07733605 -0.092232816 -0.06317533 -0.010282014 0.08645386 -0.15659222 -0.28426966 -0.10960408
from 0.099392846 -0.049716733 0.031444676 -0.0137041 -0.09872086 0.17317124 -0.08960218 0.31468317 0.057055928 -0.023652352 -0.2600357 0.21027774 -0.06323336 0.26557106 -0.18945092 -0.037663024 0.058738045 -0.010319469 0.13215134 0.1884312 0.23233438 0.10169269 0.19864765 -0.06222463 -0.00031158415 0.110283665 0.057368748 0.09274794 0.14521654 -0.20650893 0.19032107 -0.027887998 -0.034104045 0.073274456 0.093764424 -0.02552964 -0.10644417 0.09988821 0.047146402 0.08443551 0.19346572 -0.24892402 -0.093528666 0.08473369 -0.053021815 -0.009848468 0.11047685 -0.055917848 0.075721145 -0.1939809
once 0.115511626 -0.33302245 0.32888615 -0.25589705 -0.38263473 0.021199541 0.20943946 -0.11432128 -0.1441176 0.016425746 -0.18676381 0.04820446 -0.025474409 0.029471943 -0.264495 0.0035900078 -0.2616172 0.3360818 -0.21587035 -0.023402233 -0.07629802 -0.040995248 0.1795539 0.108736776 -0.19140014 0.053315934 0.15186095 0.12518312 0.0011345062 -0.10862544 -0.0031948392 0.018649224 0.22913411 0.21004067 0.42695236 0.08577792 0.2592286 -0.1781088 0.35551798 0.15479407 0.061845813 -0.62441075 0.10500976 0.0389991 0.040569894 0.047729835 0.0265807 -0.17393216 -0.22219558 0.26363438
we -0.09273213 -0.3547479 0.038260188 0.0943818 0.27690497 0.010049624 -0.0246905 0.11140312 0.3242377 0.16208598 -0.1385372 0.110445954 -0.0025001129 0.08692008 -0.118131064 0.036114894 -0.21352 0.010726303 0.22531216 -0.18207781 0.15665013 -0.3039465 0.08145694 0.19277945 -0.26445648 -0.40689847 -0.31205407 0.12622729 -0.2206822 0.029292129 -0.16086344 -0.010055699 -0.3365536 -0.13858749 -0.29940993 0.04831124 0.009273949 -0.18841405 -0.05745054 0.08831731 -0.27788565 -0.21065931 -0.05362446 -0.027602086 -0.05432516 -0.011194095 0.014031161 0.081507996 -0.27257666 -0.071688026
nothing 0.14028983 -0.05030874 0.19673418 0.013082163 0.17701873 -0.010548807 -0.2772423 -0.3666559 0.03834008 0.08889278 0.27841493 -0.03225931 0.19927269 -0.18437955 -0.052281667 0.039174736 -0.20466901 -0.020850696 -0.03427014 0.080942824 -0.28598085 -0.35294896 -0.16947794 0.14625478 -0.0757963 -0.19900927 0.06215024 0.07691891 0.11811641 0.28090656 -0.079326235 0.133385 -0.34603104 -0.32514575 -0.10975463 -0.018144641 -0.06449919 -0.09337541 -0.07841623 -0.03478519 -0.24315856 0.06567618 0.1124065 -0.15972511 -0.05015727 -0.021736734 0.1615183 0.21339011 0.12523836 -0.19359636
large 0.16625652 -0.17433588 -0.048797436 -0.27089956 -0.121775106 0.05005171 0.15252711 0.051092792 -0.09652977 -0.055215087 0.088234365 -0.07656573 -0.12801215 0.1125223 0.0010539992 0.2802918 -0.024299938 0.41151908 0.10589668 -0.021774778 0.25192335 0.17654431 -0.22285216 0.04603735 0.08185537 -0.049898345 -0.21121442 0.3455106 -0.15352264 -0.08122487 0.029310783 -0.18066493 0.02368055 0.23575763 0.13309072 -0.14364018 -0.036669515 0.005477594 0.28354284 0.32687145 0.25966197 0.16033229 0.073854744 0.27576956 -0.08122229 0.23319085 -0.09578967 0.11670989 0.14685734 -0.10282116
will -0.24541293 0.04182975 -0.09242832 0.20643397 0.15109676 -0.2781812 -0.2210357 0.27685007 0.45970643 0.13716294 -0.0952473 0.050836254 -0.41512337 0.23856027 -0.22060809 0.04512935 0.015363231 -0.35514176 0.13459328 -0.2406618 0.20661536 0.16031843 0.48819238 -0.001647849 -0.30159575 -0.08302507 -0.13649385 -0.02527261 -0.026896149 -0.20626734 -0.08620609 0.04098375 -0.15296769 -0.52561516 -0.5905495 -0.1327908 -0.26936793 0.09987008 -0.28908142 -0.06271068 -0.45554316 0.16106686 -0.29497412 0.20771453 -0.062597565 -0.22420152 -0.0935166 -0.09402071 -0.10801903 -0.31803042
last 0.1306407 -0.120853424 0.28151605 -0.17590629 -0.27616435 0.01846028 0.15984416 -0.17273334 -0.4121714 0.050757304 -0.14645356 0.12420317 -0.004012944 0.099450834 -0.08998644 0.010801941 -0.3000612 0.22266187 -0.08123678 0.063853905 -0.044376023 -0.17228527 0.1363554 -0.040528025 0.13509844 0.24101204 0.1947338 0.27843535 0.12839621 -0.15484226 -0.038218636 0.13596351 0.30802068 0.027386121 0.43238375 -0.047595184 0.18600443 -0.05847229 0.3097378 0.045837976 -0.11507121 -0.559512 0.06036704 -0.15580662 -0.08663394 0.15961042 0.010223757 -0.27418265 -0.14194414 0.28028885
march 0.23766333 -0.32814088 0.36007246 -0.05486174 0.28470257 -0.20525709 -0.43482587 -0.011748262 -0.5166524 0.49591437 0.057470325 0.16176654 0.040158547 0.11516696 0.037748165 0.5349677 -0.26800603 0.08482026 0.74188924 0.19784422 -0.08341448 -0.15138522 -0.12689388 -0.020477375 0.3617704 0.18679094 0.23618017 0.49796525 -0.014356317 -0.22910768 -0.079232596 0.34176114 0.03169483 -0.2691716 -0.12253714 -0.31395194 -0.19377533 0.24379884 0.46638978 -0.17521578 0.1647669 -0.61733615 0.40115058 -0.057238296 -0.1212637 0.36081448 0.15957566 -0.2795873 -0.36690718 0.14891668
found -0.0594522 -0.3942262 0.5104017 -0.10683165 -0.008140108 0.20389903 0.13940513 -0.2675983 -0.2530941 0.018900586 -0.2327227 -0.12098423 0.25404269 -0.0219666 0.07752804 -0.14271538 0.09947273 0.029912783 -0.18818916 -0.0907741 0.07949143 -0.2674859 -0.013804923 -0.04616513 0.06488502 0.066051155 -0.1430949 0.2538858 0.065457195 0.13086087 0.046194434 -0.15974289 0.037635706 0.03022779 0.23913282 -0.10842633 0.21055412 -0.13976774 0.3760373 0.17451215 0.0075049372 -0.020763548 0.30608457 0.0050881202 0.17275406 0.064490974 0.03888451 0.23958367 -0.06409588 -0.2122261
right 0.1707382 -0.09672997 0.23402427 0.041160397 0.045730874 0.11372675 -0.09095399 -0.10386778 0.15372281 0.12738651 0.13928235 0.05118644 -0.072117254 -0.112544775 -0.12160327 -0.007872673 -0.20505503 -0.2227475 0.20630987 0.2704033 0.09364956 -0.29011786 0.2014487 0.18544377 0.06992361 -0.3490585 -0.033408698 0.1585048 0.1112975 0.0995082 0.06930897 0.22924489 0.007631466 -0.10204559 -0.07947463 -0.1038099 -0.33068395 -0.10212905 0.016964905 0.17011908 -0.09968832 -0.1863541 0.013046939 -0.2921694 0.12697008 0.07215358 0.19291896 0.15668322 -0.015687281 -0.14211571
tell -0.08596792 -0.2208987 0.058933984 0.45145708 0.14991406 0.06989081 -0.10704396 0.030399797 0.31747872 0.029062426 0.14898695 0.07533696 -0.08056532 -0.23639731 -0.08385933 -0.13251929 0.06638921 -0.36675948 0.23949699 -0.18160869 -0.14750682 -0.08181335 0.30316508 -0.21862735 -0.31137273 0.110182695 -0.20508316 -0.36655998 0.053989243 -0.037785098 -0.027109241 0.20468311 -0.20900811 -0.18264394 0.070682675 0.11158082 -0.074572526 -0.06894861 -0.27905047 0.15717775 -0.23384398 0.0006091024 -0.06382836 0.44280916 -0.006331801 -0.26976776 0.09578728 0.045438096 -0.16045837 -0.16164315
long 0.06878908 -0.016721 0.09894412 -0.016653387 -0.048388094 0.0024508657 0.1614309 -0.16719039 0.014580103 0.013513427 0.1212852 -0.21797436 -0.11426887 -0.1719315 0.21594614 0.26044223 -0.02895414 0.13546833 0.064807184 -0.0674297 0.17343022 0.020469332 -0.13862035 -0.098889194 0.074353084 -0.1695788 -0.29346672 0.10385514 -0.16132876 -0.01454979 0.04901503 -0.114703074 0.24344915 0.16138293 0.16667935 -0.047624093 0.019911107 -0.006214753 -0.0170113 0.2848565 0.22287866 0.17221943 0.19291382 0.30128378 -0.011795758 0.06321766 -0.042941507 0.18992476 -0.026712136 -0.03805632
looking 0.040745307 -0.41158795 0.35748994 -0.30213886 -0.26493043 -0.12809676 0.10027598 -0.19873194 -0.44419688 0.22740534 -0.06418762 0.15978855 0.25878754 0.011843281 0.0011376165 0.1236996 -0.075622864 0.14134802 0.024928391 0.16116813 0.020454464 -0.17803948 0.040176686 0.2228448 0.14137384 0.11836367 0.02066099 0.33036268 -0.17040831 -0.024267241 0.003274693 -0.009472502 0.036987174 0.008286017 0.2186807 -0.036328632 0.19293962 -0.1325573 0.2553874 0.14766195 0.11471794 -0.19071391 0.2265486 -0.27973247 0.010405962 0.07521503 -0.023519201 -0.19275829 0.09814243 0.24862899
moment 0.05872187 -0.1806086 0.13626954 -0.14471887 -0.30991977 0.05637931 0.08532886 -0.3387911 -0.2398586 -0.19252636 0.16591911 -0.102433465 0.15789229 -0.004695769 0.080054745 -0.10092377 -0.10225212 -0.08673647 -0.19947353 0.024055384 -0.030195981 -0.30150965 0.16049062 0.03373074 0.25201505 -0.12060618 0.082025744 0.123018764 0.14178662 -0.043431267 0.04995278 0.06358014 0.28083572 0.099841796 -0.030458538 -0.041859824 0.11260819 -0.066438064 0.3579819 0.21424559 0.0028481525 -0.02085525 -0.12203284 -0.22535364 0.23461662 0.039464343 -0.02157184 0.048169073 -0.10596617 -0.03872527
put -0.06567458 -0.22315812 -0.10646954 0.073331565 0.19440179 0.17541195 0.16781373 0.12993725 -0.087393045 -0.11767565 -0.41837433 0.10643013 0.050921496 0.019895062 0.0031970274 -0.26529887 0.006358591 0.036035407 -0.2704675 -0.04987994 0.2076652 -0.067677155 0.06541554 -0.01535806 -0.064073436 0.022349877 -0.0032398622 0.09369368 0.1837485 0.1514814 -0.042429257 -0.34535924 -0.23258406 -0.112668574 0.02987987 -0.05407123 0.1709526 0.022058282 0.035341833 -0.14435269 -0.08042782 -0.01641822 0.114257075 -0.008385366 0.044642936 -0.2080206 0.025383346 0.06736456 -0.010402209 -0.004674607
white 0.050956264 0.34377393 0.16589223 -0.012707829 -0.055726383 0.17529981 -0.1453908 0.16682532 -0.11740454 0.24604778 0.3806306 -0.024753205 0.024150748 0.3264641 0.3633989 0.25678554 -0.04377937 0.17491673 0.057061765 0.22100167 0.2653975 -0.303054 0.046174347 -0.021174181 0.46678632 0.12653327 0.027485073 0.56370753 0.08501283 -0.10361042 0.034646194 -0.08141211 -0.016574256 -0.071948126 0.47112492 0.025612079 -0.23339514 0.25858334 0.33703724 -0.041645505 0.19612108 -0.18760893 -0.0031722337 -0.2797997 -0.23484428 0.14678366 0.19135115 -0.2068613 0.27646112 0.03583612
next 0.07482192 -0.20175432 0.016478552 -0.08859778 0.13497452 -0.029163038 -0.05740782 0.079700425 -0.051326264 0.08010337 -0.26773345 -0.02153156 -0.18190093 0.01087765 0.099218756 0.011318212 -0.03794442 -0.08727647 0.08582428 -0.045814306 0.053754445 -0.07128717 0.099579945 0.065142065 0.0055743824 -0.07024845 0.036485575 0.1666449 -0.05841926 -0.012580994 -0.031784385 0.13750112 -0.3168935 -0.091000155 -0.18217047 -0.03091076 0.024118077 -0.17264502 0.007471387 0.063410796 0.2366691 -0.20922133 0.0777274 -0.002990789 -0.04902495 -0.031068496 0.1557302 0.01649585 -0.018328357 -0.22254534
things 0.03241809 0.06615079 -0.13717517 -0.035826657 -0.108518146 -0.18600483 0.024651628 0.06454119 0.023869561 0.21448952 -0.21942046 0.10498067 0.061551347 -0.16006729 -0.15239593 0.13480702 -0.017102515 -0.06665787 0.03924192 -0.019752895 0.1378746 -0.122707084 -0.10678226 0.19350567 -0.04223844 -0.25386205 -0.06260629 0.10643424 -0.20657662 -0.09827712 -0.23012473 0.08135434 -0.027606066 -0.08219874 -0.055814236 0.014260903 0.0035890627 -0.023528587 -0.17779352 -0.030627312 -0.15297768 -0.06729627 -0.015354676 -0.11899114 -0.13905376 -0.059803072 -0.036914065 -0.04861789 -0.15710698 0.06991828
door 0.02982346 0.091039814 0.17429672 -0.15050763 -0.09352864 0.031544194 -0.013123078 0.05852242 -0.07579658 0.040994585 -0.19089893 0.017931957 0.23753446 0.084578075 0.1083951 0.0721977 -0.031712055 0.026519831 -0.07808749 0.13166995 -0.10356301 -0.019377708 -0.08087573 0.027360294 0.2516788 0.0846977 0.027929554 0.16613096 0.088656634 0.11586415 0.0369556 0.06373839 0.078130044 -0.052372344 0.08301595 -0.11590902 0.27022856 0.005606205 0.19966318 -0.035884596 0.5185809 -0.11910156 0.083717324 -0.07270906 -0.09242286 -0.025136536 0.02916822 0.02194782 -0.055610947 0.012862164
heard 0.15198492 0.26692247 0.25742653 0.12028005 0.038674317 0.1731262 0.039261255 -0.17707615 -0.2521271 -0.038179733 -0.0031877032 -0.20123315 0.32756898 -0.12409903 0.09575254 0.0534433 -0.05039657 -0.18106243 0.12070968 0.07823243 0.1077951 -0.058719527 -0.055952787 -0.0022971379 0.04945045 0.20168729 0.22222002 0.12615885 -0.083455585 -0.24955261 -0.09644705 -0.028602442 -0.06909733 -0.17650266 -0.09872554 0.016509816 0.2162358 0.06985129 0.15462923 0.1254781 -0.01623908 0.006231466 0.19679302 -0.106011674 0.1950493 -0.2584105 -0.26196286 0.02936943 -0.19010524 -0.08808123
hare 0.26435167 -0.2973404 0.107943706 0.16202435 -0.23828185 0.30557752 0.07672143 0.083658524 -0.25380984 0.43426955 -0.40847313 0.10042639 0.17113125 0.7497931 0.3271896 -0.06473509 -0.35244364 0.087390155 0.395495 -0.259852 0.098187104 0.042378478 0.36189044 0.14858168 0.62706095 0.028104622 -0.028878236 0.6514951 0.3099066 0.15486239 -0.0028848888 0.47560883 0.044145282 -0.27853796 -0.1045219 0.030674359 -0.10913358 0.17518917 0.016631132 0.016897388 0.07348644 -0.1972965 -0.16551529 -0.38484615 -0.092562824 -0.008157429 0.52956474 -0.30073252 -0.64446074 -0.015316576
made 0.025596995 -0.06907611 0.14580409 -0.16783106 -0.04018765 -0.04048402 0.0009016501 -0.02414085 -0.16928501 0.042563077 -0.16692747 0.05932801 0.0035317515 -0.04168474 -0.041744616 -0.10060103 0.32666796 -0.14909177 -0.12550977 0.003896876 0.22037724 0.040733945 -0.14720553 0.005938573 -0.07582199 0.1929108 -0.15059842 0.18173479 0.12269825 0.026410254 0.18218048 0.10443667 -0.23251265 -0.06944962 -0.013877006 -0.06494648 -0.038879283 0.078132026 0.16920663 0.092844725 0.10117689 -0.058423687 0.18544929 0.11585229 0.08000097 -0.054007404 -0.06295976 0.10376925 0.16617028 -0.45874503
eyes -0.19102103 -0.24031518 0.06657728 -0.16859628 -0.21283787 0.31738344 0.18187822 0.34233513 0.028766528 0.19463357 -0.15777394 0.10198448 -0.1093806 0.1776792 -0.13105363 -0.1635958 0.37852162 0.28092706 -0.06692194 -0.07606293 0.24820453 0.25364003 -0.18723693 -0.028617717 -0.100416765 0.085206255 -0.16516925 -0.011581302 -0.06807247 0.058266036 0.28529844 -0.25036982 -0.28350818 0.2270655 0.29985464 -0.061159223 0.10566275 0.15504779 0.15908656 -0.031248657 0.18606718 0.07778073 -0.17315795 0.2668936 -0.057671897 0.009839928 0.023400111 -0.13562784 0.12326412 0.1885102
dear -0.0064144507 0.1365785 0.08229124 0.2867976 -0.0726591 0.19783242 -0.12039414 -0.04512584 0.14228882 0.22443677 0.24255355 -0.081816554 0.15904748 -0.13409065 -0.059549205 0.004990188 -0.06041403 -0.22939354 0.11019928 -0.21134366 0.2514481 -0.20259187 0.040102676 0.25598085 -0.61755997 -0.20198578 -0.18378927 -0.032315355 -0.2984589 -0.23125917 0.021216586 -0.08717913 -0.22214913 -0.1312883 -0.14024088 0.25846127 -0.080119886 0.114725485 -0.18277635 0.19127408 -0.61145383 0.040633455 0.14993745 0.0649366 0.25512853 -0.12026415 -0.16256042 -0.13182838 -0.23195282 0.058463357
look 0.10978369 -0.11454914 0.20992935 -0.047978703 0.017530752 -0.20767713 0.19225484 -0.120758556 -0.0495242 0.086878344 -0.42460504 0.1071529 -0.08701304 -0.14678788 -0.16489993 0.0109541705 -0.29659048 0.20667715 -0.09742975 0.15433504 -0.056967504 -0.061196104 0.152572 0.115327775 -0.11017227 0.029580595 0.013881161 -0.06819456 -0.0039808927 0.019541489 -0.19051401 0.113140285 0.0608518 0.04294947 0.025942605 0.1576615 0.13286383 -0.19456515 0.0766009 0.053585995 -0.15356357 -0.13158096 -0.105854794 -0.03743338 -0.013122164 0.031385556 0.03012827 -0.023551308 -0.17455293 0.15809278
d 0.021647988 -0.16599187 0.2736186 0.23917685 0.26933557 -0.15116021 -0.05014224 -0.053696208 0.08247567 0.3522724 -0.013868017 -0.22687612 -0.06369155 -0.29461154 -0.094489545 0.10886568 0.12611248 -0.46020377 0.4490672 -0.26343843 0.2116481 -0.06801451 0.28492054 0.026248626 -0.1085287 -0.24818845 -0.0641557 0.015930733 -0.073426604 -0.2107307 -0.11785554 0.16413002 -0.07956999 -0.56800175 -0.5175552 0.17069346 0.102995425 -0.19412611 -0.30327585 0.16916831 -0.3527688 -0.18786547 0.14956139 -0.065526515 0.15646295 -0.22047238 -0.035938844 -0.17187203 -0.2942225 -0.17447497
replied 0.29003116 -0.34032586 -0.21189103 0.049302552 -0.04429151 0.36917862 0.05270634 -0.054661427 -0.098706 0.1255425 0.04842759 -0.10111318 0.030239258 0.03760545 0.20942721 0.018726077 -0.43479162 -0.37997505 -0.0227815 0.08722549 0.052981313 -0.1490104 0.041090928 -0.051592235 0.30539036 -0.113693334 0.45002696 0.30582556 -0.33273703 -0.21307595 0.29136872 0.33759928 0.253665 1.8879655e-07 -0.1470705 0.045992114 0.059852943 0.36059067 0.17172667 0.010170011 -0.4070211 -0.2947308 0.1002223 -0.32258555 0.15565053 0.04042743 -0.08114492 -0.15713955 -0.20142731 0.17905326
day 0.060080685 0.12436171 -0.057176616 0.108516596 -0.046482302 -0.0111795105 -0.17670353 0.12776217 0.23166808 -0.08208152 0.13690726 0.05337051 -0.25062588 0.087652385 -0.055694178 -0.0043752636 -0.18129522 -0.08316041 0.023564812 0.07604187 -0.06398146 -0.025146486 0.18536025 0.013814228 -0.1563941 -0.04724918 0.04651939 -0.09223276 0.02122554 0.035226826 0.10898979 0.06509141 0.12046756 0.06114657 -0.09932278 -0.014536979 -0.23867096 0.03901718 -0.065860204 -0.061750356 -0.023498157 0.013296269 -0.15859671 0.13032386 0.04638479 0.043642167 0.11618308 0.17059582 -0.13820261 -0.07534332
might -0.051519137 -0.35088706 0.56642705 0.3532922 0.20630695 0.031427618 0.06860667 -0.24480742 -0.022569707 0.0991259 -0.10007137 -0.091691144 -0.04526623 -0.13736941 0.08060091 0.20875436 0.048712976 -0.44860044 0.26740986 -0.008313264 0.07410482 -0.12878524 0.42877406 0.026179578 0.2411204 -0.25614208 -0.498233 0.13778894 -0.059497226 0.06271701 -0.035881918 0.0770964 -0.08335546 -0.35963488 -0.034637798 0.11226192 0.14825144 -0.24700134 -0.2341084 0.42258015 -0.27134106 0.053085104 0.3048029 0.070387974 0.35015962 -0.31442297 0.033607412 0.24891318 0.04351703 -0.312379
three 0.17012456 0.21117365 -0.088734634 -0.17719035 0.027389137 -0.022298563 0.114214726 0.21164806 0.045052905 0.10572894 -0.093678236 0.17782955 -0.045742914 0.12704109 -0.04728407 0.09509367 0.10309374 0.20774172 -0.09626667 0.048024576 0.14285348 -0.08041209 -0.038185135 0.14265469 -0.059441764 -0.1609432 -0.055320874 0.24597616 -0.04584529 -0.1367681 0.090005174 0.04606699 -0.1356256 0.14421187 0.19026345 -0.069963254 0.06975017 0.14027244 0.0017778699 0.03594285 0.09666024 -0.16223848 -0.13876146 0.20696406 -0.15879074 -0.036120716 0.040348228 -0.010600532 0.2426102 0.08770251
caterpillar -0.04130758 0.0064108097 0.26119757 0.045687098 0.110640004 0.14442532 -0.04667384 0.10497014 -0.046980392 0.24561812 0.34599477 0.09268862 0.012034946 0.26607314 0.020441584 -0.06955709 -0.3269092 -0.026718486 0.28398222 -0.08540195 -0.3225894 -0.25752148 0.006004009 -0.10562917 0.07093734 0.024342135 0.12056264 0.036578387 0.108579196 0.33469093 0.037281357 0.19539356 0.1216925 -0.002628906 0.2194974 -0.19435732 -0.25649938 -0.2138501 0.07523769 -0.17675188 0.19466396 -0.2827703 0.02260278 -0.17254713 -0.15779838 0.40668517 0.28055292 -0.1590806 -0.17718077 0.1225372
seemed 0.13078596 -0.3071581 0.24947399 -0.12092804 0.15401956 0.18199854 -0.077171154 -0.09692435 0.084372774 -0.056693688 -0.018195583 -0.014611844 -0.105051994 -0.024929233 -0.08617075 -0.16928372 -0.02994873 -0.16808207 -0.046663497 0.06448511 0.22370495 0.03498174 0.38720128 0.14077888 0.05766492 -0.3696442 0.029772148 0.05337739 0.1778224 0.20195629 0.30253646 -0.0777894 0.0882207 0.009829274 -0.2313435 0.105010115 -0.06087597 -0.040943366 -0.092265815 0.18812037 -0.298274 0.09245201 -0.113826506 -0.076085165 0.27745685 -0.03601558 0.3809916 0.17747612 0.17941125 -0.15575702
going 0.30280602 -0.2252145 -0.18090531 0.036539707 0.06987643 0.2296933 -0.10771427 -0.16720685 -0.09028866 -0.10406911 0.1885622 -0.112844996 0.018872043 -0.08689402 -0.099991865 -0.07659776 -0.16621165 0.28312954 0.089992896 0.10456015 0.05136213 0.11572555 -0.24664097 -0.01576423 0.06405134 -0.123357594 -0.025723288 0.0029418864 -0.20311123 0.07646198 -0.12040476 -0.25989196 -0.24844782 0.21023495 -0.19116619 0.15374549 0.057975177 -0.21847726 -0.12906963 0.051256076 0.26820877 0.17556678 0.15221962 -0.22871915 -0.26473883 -0.16967851 0.3498951 0.01988409 -0.0075848 -0.059374277
make -0.01195523 -0.28237337 -0.033657067 -0.009807047 0.24171956 0.08147664 -0.15178737 0.11557004 0.28735313 0.1452273 -0.23594987 0.036078025 -0.1469981 -0.17872399 -0.05815792 -0.0027743941 0.1091366 -0.16961642 0.025687817 -0.002120685 0.1837048 0.124615744 0.26840284 -0.07246798 -0.07398306 -0.20726585 -0.12364744 0.060988277 -0.020664208 0.0069333436 0.16090451 0.031520754 -0.17953628 -0.2210582 -0.086567074 -0.04367512 -0.24325366 -0.011616977 -0.24272469 0.27294767 -0.111928545 -0.12480245 -0.14504488 0.2853433 0.024976745 -0.17355374 0.2779376 0.034514524 -0.063539326 -0.2698277
good 0.11497925 -0.15776758 0.1392039 -0.09521908 -0.18103054 0.33877057 -0.047248557 -0.076538995 0.12975228 -0.2444526 0.24205959 -0.15793996 0.17638385 -0.009641454 -0.08759529 0.033819195 0.1445997 0.22718357 -0.10308378 -0.12233676 0.04279066 0.09028289 -0.23176832 -0.087233156 0.037386697 -0.22731735 0.030409863 0.16193241 -0.15057206 -0.14601831 0.191887 -0.20065835 -0.0991197 0.24646209 0.17948635 -0.115447335 -0.042415034 0.096876375 0.30544624 0.30624357 -0.023528004 0.21734087 0.09647908 0.16186143 0.100853994 0.009190511 0.0601748 0.27778637 0.26697198 -0.17322353
should 0.040942743 -0.037797134 0.21742143 0.102798626 0.16101451 0.06533075 -0.0074577564 -0.26571423 0.118253656 0.026443172 -0.028455859 -0.14913286 0.021126738 -0.2228531 -0.18088791 -0.13023831 -0.056619626 -0.3316463 0.082085624 -0.10635865 0.14925914 0.036259606 0.34722313 0.122201964 -0.15578899 -0.23648977 0.026711581 -0.17548843 -0.017436376 -0.06701441 -0.0692981 -0.0994673 0.049121317 -0.48572898 -0.4192184 0.28988218 0.06543246 -0.12345192 -0.33319095 0.17582078 -0.48281208 0.0072090956 0.0071858265 0.0821355 0.17570993 -0.23767917 0.06167741 0.07046897 -0.09210225 -0.014037416
poor 0.028858533 0.20190018 0.045946125 0.13252309 0.027474396 0.41892657 -0.045364942 -0.079148956 -0.04267299 0.13809702 0.15208785 -0.008229951 0.41598663 -0.022063918 0.25671998 0.061467774 -0.26262257 -0.23651984 -0.011446607 -0.056133043 -0.019837305 -0.37725767 -0.07847759 0.11700479 0.049517043 -0.22885439 0.24751267 0.31749898 -0.34465283 -0.13638632 0.29405186 0.077874824 0.097018525 0.10839941 0.1455936 0.08035894 -0.103253 0.2790455 0.25036865 0.25102752 -0.2413585 -0.00013036918 0.055621695 -0.11595341 0.2736988 0.14451995 -0.15861794 -0.05935403 0.027850814 0.19101998
without 0.12508993 -0.31831455 0.23883839 -0.060203843 -0.016574059 0.26236516 -0.09678094 0.05857554 0.20233282 0.0025974556 0.15156054 0.054010138 -0.10144757 0.11750488 -0.07706025 0.018821266 0.069599085 -0.021083023 0.124245144 -0.057164412 0.19195999 0.062263753 0.006694005 -0.02122917 -0.0245942 -0.15589936 -0.11957343 0.29570812 -0.02690085 -0.11517756 0.1623785 0.13414125 -0.014892997 0.05664204 0.09938978 -0.121214546 0.0012327009 -0.05605757 0.21013184 0.24881096 -0.1419244 -0.28041294 0.09164122 0.12789975 -0.06193434 0.031900372 0.059685607 0.095305786 -0.12697302 -0.05951715
upon 0.029432502 -0.30455762 0.18212117 -0.12829152 -0.15722807 0.25526518 0.15639779 0.08452432 -0.079760514 -0.16836856 -0.0337567 0.039778512 -0.022659743 0.20331179 -0.13511577 -0.058551114 0.22938778 -0.030718576 -0.025757525 -0.02359529 0.15887377 0.12559213 -0.11167425 0.014047135 0.06487515 0.22781855 -0.06900665 0.18550366 0.01553031 -0.09918494 0.29429367 -0.0632533 -0.15164864 0.002163963 0.27430466 -0.059548028 0.15780987 0.066623285 0.29875186 0.168418 0.114350826 0.04257596 0.029368501 0.114336446 0.102941096 -0.15813383 -0.17486711 0.030008378 0.18795781 -0.0629612
